0.526967921059662,-2.16140852448928,0.853281401950904,-1.67104205163712,-0.161216327683901,0.107083161179057,-0.119584206108316,0.728897345573746,0.618452494650415,0.582221764794184,0.285494996827882,0.668064342506992,-0.638429637873192,0.486312687604205,-0.559304696059393,-0.598598669136175,-0.267114238904032,-1.21369007024674,-0.48994535000772,0.0216185559372146,-0.293060325060472,1.31826298316405,-0.354476929663365,1.31136429112145,0.0175719273776936,0.220485786210079,0.295339703606947,-0.572421935569467,-1.55209514909453,1.85906072240931,-1.30572961290797,1.20527515246362,-0.769352039458978,0.212022672335994,-0.824158046110108,1.24810293195737,0.0351982006994828,0.441167638301993,0.498854120858256,-1.41484372052519,1.1111122256511,0.278280706997907,0.277691197652385,-0.944126909464832,0.330972763260652,0.574650635350929,1.19383010465644,-0.223079996876453,0.653297563329767,-2.24049441812842,0.71987423799356,-0.141031265298655,-0.392594702773536,-0.447040346693855,-0.928917194870731,0.97133924617654,-1.35363150580381,-1.20898791122005,-1.63614830000154,-0.98238532279928,2.10253453614154,0.0340551330614736,-2.12569619254827,-0.259424583930201,-1.09327797711852,0.139477284568898,-0.284430976024174,0.477043638114001,0.132172358341932,-0.496741551748905,-0.281804418841192,-0.237362223425804,0.995820605882661,-0.826842957102194,-0.957130327350743,1.8178146008528,0.915505452025967,-0.570175973599051,-0.919880795491807,0.219200564177195,-0.565965202313636,0.039656525049895,0.245918944231585,1.13668734215511,0.915244729478857,0.284456861023904,-1.33442279772512,-1.68875714628319,-1.07254116584789,1.64466447071404,1.13113146232772,-0.769440659556614,2.1209358896674,0.345977916257241,-1.0073066281022,1.86439066121411,-0.988454822392746,-1.02025145292213,1.49637196706156,0.0237979632922042,-1.46581060374526,-2.04579984377742,1.91618026304252,-0.390682968899079,-1.56099501835668,-1.16221031582843,-1.51211046919398,0.307075300064996,1.95523747368259,0.857765319476138,-0.257630658463786,-2.66610183783213,-0.858629075254258,0.383756070030433,0.6503063550939,0.461735073257835,1.35305116586739,-0.877620680606753,-0.578002104044515,1.55786603290639,0.217828756632138,1.59637258997131,0.0430661058247544,0.179388111851534,-1.03291028985402,-0.741205725249786,0.479878171071003,-3.4277594838121,-0.218243873525265,-0.528264938219145,-1.12226526252501,-0.717665413106281,0.313451253536659,-1.9164414030221,-0.194097832791597,-0.0949442720187425,-1.37107820721484,0.666999697342201,-1.77472846598823,0.399343963869103,0.577548171122652,0.141063389798878,0.877817705951275,-0.287336291083601,-0.230373389652132,-1.2319399171228,-0.745934736208213,0.475964845284022,-1.26451570837398,-0.922361472857838,0.00469014725596569,-1.28454051968339,-2.82555682517076,-1.11087611857031,-0.0960557293085552,0.0290636130395275,-1.16653357215667,0.354479113663304,-2.27481710940897,-2.21198972462545,-0.603070628505077,-0.450233236180447,-2.28831123923868,-1.7584266974281,-0.258875420962912,0.447414238311879,-0.291761048476721,-0.806394950467909,-2.14191229830642,0.27557998874273,0.00801044133909523,-1.77282986267948,-0.335987631527739,0.548879565228973,-1.47332111867146,0.320654383496212,-0.837307250422556,-2.99100212630362,-1.53282138366434,1.1535790227334,-0.547274461367748,1.67985872075228,-0.796171951048102,-1.12840858463497,-1.46805927249017,-2.28866488213366,-2.61590134100539,-1.5596712050242,-2.69042483649417,-0.866674092142252,-1.38513156861807,-1.38013366011238,-0.990913398425647,1.04815551398414,-0.920421694148644,-1.02964507685454,1.32634470223182,-1.03944992418195,-2.63330912725823,-0.668444631739698,-0.664934495307408,1.78973576669232,-2.47578103908,0.0612342587756414,-1.58653526536502,-0.0364728808745102,-0.279681185512308,-2.10115312138228,0.820885368650472,-1.63974020254851,0.894468863621525,-1.21680696142456,-1.06277273498185,-0.8565618222058,0.196686422563734,1.45358690064758,0.750223202238961,-0.678751932296154,0.638685174361714,-0.562373088400752,-0.283140338771103,-0.362847294050842,-1.43042726057718,0.72015292480564,-0.738203556118342,1.47383781390738,-1.38312653799958,-0.789910715181002,0.763937669286279,0.975972956439431,0.66107502075953,-0.666114605669081,-0.319527782254746,-1.53919718095187,-1.89720109977271,1.97855080526912,-1.45924767377538,-1.3092464314407,-0.810812689706706,1.68950510821442,2.61059617728299,1.94378007250377,1.39142813213786,0.258390204515497,1.80483179596095,1.05578389768592,1.29836970829552,-0.0649245304238796,2.1236740455275,-1.46366900548836,-0.629970270526157,0.0257311048237731,0.429312245244711,0.296713292146738,-0.597631423404134,0.213247983709946,1.18744481079431,0.232965060218979,0.217266420795401,2.90620659105768,0.22266973952605,-0.16135901238546,-2.46371290166487,-0.386674352108189,0.736804142223612,2.79906974425062,1.43239673159494,1.79423312250367,3.07305593162856,2.04807489629003,2.50585743154785,2.77132565662841,2.03521649037813,-0.041291025492342,0.382116830078693,-1.39294158757369,-0.334111590529534,0.879227665552495,0.496913869984542,1.33815445109193,0.847788534189404,-0.202941902777732,-0.439088128992622,2.53986223045348,0.411483637925166,-0.389347821866934,1.86271114604856,-1.48022174669918,-0.241281738498835,0.422006633566476,1.807641580462,1.32701014651691,-1.12216670431959,0.78629936628162,0.252654048914767,1.6566693796274,1.22284710666618,3.61424179968898,2.04612445845202,1.84641226610733,2.58690877270171,1.65940182143438,-0.0557332142897259,0.323822145850509,2.57093228232396,-0.21176434334547,0.789284574154919,-0.838069886153598,3.02327828901609,1.61575212922596,1.53422132819654,0.0481105531191842,-0.3440187668718,-0.24144975420281,-1.09788444853125,-0.719877725720343,-0.950775413307329,0.299121021764083,-1.05948966525043,1.1397651519437,-0.24346240441329,1.33889144040144,-1.43803203696281,0.700089935002504,0.318527375883745,1.70276605335549,0.0424023825512872,2.10203701165779,1.88626139002934,1.76597951786951,1.40621395280934,2.16367734624382,-0.377229742009691,0.155341257282081,1.86216648491216,0.661754622823739,0.0817181929262497,0.322268709769773,-0.691838987590041,-0.430498863553826,0.281889517746017,-0.146110850678644,0.287080648535477,0.940783459230743,-0.351932053854521,3.30197852298099,-0.904327230275909,-0.611776206935231,-0.63447531530609,-1.02754965891929,-0.819881952130363,0.612773091574864,-2.09614296876908,-1.91448308295692,-2.06069240400091,-1.42509302082615,-0.710274053389217,0.502668376506713,-0.31384722427626,-0.13135655247124,-1.28706814695137,1.16405444198585,-1.04329216891265,0.49899165050108,0.99186536736463,-0.672391281586051,-0.750526574363413,0.0621481859116856,-0.443989490221786,0.210282517858198,0.425051289308432,0.186662643827512,-0.437786491755928,0.506068286176084,1.31348637516332,0.694584417507132,-0.0580494723810752,0.449757823849899,-1.48713356120392,-2.96803757383688,-0.894545998712658,-2.21183742730041,-3.45630565948007,0.363195236357578,-0.5099393196056,2.09797977316391,1.98992479038754,-0.217862444462525,-1.71042697436032,0.974214232927501,-0.0603089290687138,0.0681677636783274,-0.45130770489075,2.05085453620993,1.05733160036909,0.0957614479041899,-0.0829916629793249,1.03063031968148,-1.12560605073664,-0.874914746687637,-1.5669314060504,0.238005123169532,0.55256687894063,0.300545130987617,-0.89770635839153,-1.42648805636155,-0.623567367525572,-3.39071198019193,-0.383655868274779,-1.37955498397481,-2.44320300929934,-0.123303740138047,-0.587161321774027,0.194723292516487,0.844538706257977,-0.204586932462638,-0.651159073900247,1.19243967184539,-0.242734123418091,0.94771476042687,-0.154094403565101,-1.73423935258396,-0.422418558201242,-0.0197150281006519,-0.0550870497949094,0.524563898456055,1.06636699247426,-2.03754914951009,-1.5311924927594,-1.44591862999201,3.03612274971196,-1.01865701993665,-1.76456818925393,-3.14915279366989,-2.17525402362313,0.349780418232778,0.333696645484129,-0.239504116549031,0.65270928691659,-0.826680306328265,-1.2579101691086,-0.757253790734882,-0.0277459110830061,0.931528383293957,1.1802357298195,-0.0878178645356928,-0.314627011560868,0.719205614383894,1.6957765720241,1.26664920815866,0.822273879094682,-0.736749060180686,-1.15100214010104,0.200505385786409,0.731094506621275,-1.694823757346,2.51026235998553,1.01442921558724,0.136724265502923,-2.70946544031441,-1.94464532021412,-0.809743546368131,-1.78464716274162,-0.554430873411504,-2.1373208482336,1.18547614288974,-1.18230439521917,1.50501740607559,0.105257869243707,-0.892484735262797,-2.46984692054732,0.791185876768262,-1.41227432675379,-2.50082435607036,-1.39419879833043,-0.72271519022221,0.247073211596755,1.25891865605124,2.22767482974664,0.827889565569627,-0.0931298241568074,-0.94151553205239,0.815055094337785,-0.293762197758979,0.704209743837567,-1.02465975189457,-0.967911067989309,-0.0737455828284765,-2.43982791965899,-1.31506519126323,-1.82870302790402,0.866306427482114,-0.169790346912412,-0.256472640378637,-1.27458672632091,-0.201899833079208,-0.229536259646612,-0.437943986522045,-1.59269359033471,-0.514587582203296,1.11264870991743,-0.0456572849096289,0.541930627132937,1.39464638504631,0.971608683899002,-1.33497767712012,1.3024287871341,-0.639546226544665,-0.632731801965038,0.0606679201528748,0.590713138719643,2.10141731212405,-0.353131304194095,-1.02996718953088,-1.59043457584389,-1.49722841851589,-1.11121335856917,0.229131170747028,1.19878792521493,-0.645081454183444,-0.0215296451041108,1.00415187643435,1.70508492323381,1.51878261350627,1.36224261179263,-0.829523038991156,-1.5126504558423,-0.7666329865111,-0.977712603642365,-0.409049258936775,0.175235114566534,0.0105518115927711,-0.344351661773691,0.985610462952245,-1.07801887888364,-0.0354303012065708,-2.36766126366707,-1.68897061436348,-1.2840929779778,0.954184507732258,1.35707671273067,1.23386111226344,0.726157361087393,-0.711253934400082,1.40041456652011,-0.433008770915115,0.961234836865572,-0.222419088506607,-0.978057182086005,-1.2954900742093,1.37741588755375,-1.69917651709043,-1.1698231035937,-0.333081883737521,-0.0957291989871784,1.3658080181827,-1.37968585700795,-0.717696378961861,0.957531041973942,-1.29936501569009,0.134828361920607,-1.00645927652255,-0.632783534107313,0.168790400171046,-1.53808089308948,-1.20312119901184,1.02655759237194,-0.0855482582594665,-0.550772718045965,0.699029383875651,-0.224237239494261,1.0075233501581,0.260685641009079,0.327309722989015,-0.459734296493944,-0.448057217586006,0.753800119144248,-0.124849532018954,-0.984566053927573,-1.43436471091515,-0.0987079736068134,-1.71279307548145,-0.722139860046744,0.755790685554209,-0.273363057660384,0.0392337677360954,0.233669963049909,0.16218196576392,0.225050153499782,-0.242047234299958,-0.174283443701774,-1.06807024302419,-3.06790729250509,0.472818371985976,-0.332267592404102,1.44975183902389,0.680860120075712,-2.38114822492864,0.522097280554613,-1.60891632294035,-0.366683222578503,-1.40396534546696,0.378659905403671,-1.08997849174673,0.00221589762249915,-2.65986253076786,0.216432941806981,-0.816989678335219,0.960058244521565,2.35625121648109,-1.03728959440104,-1.63913542935875,1.51483011528499,-0.305881752824253,0.0148491990799592,-1.05183864655862,-0.00845885133563023,-0.351555723487028,-1.48603888429712,0.2699677047525,-0.0642192781327195,-0.800920963844569,-0.679361107923333,0.467262876125803,0.249499936698682,0.31375451125303,-0.734314257618258,-0.53571401249943,1.0260699239618,-0.00214174858342091,1.11414349470712,-2.1186069203154,0.295648216237459,-0.1609046998219,-0.544072247812222,0.588425154628273,-1.0238356174455,-0.781579715501306,0.270937771086635,0.936205675844143,1.05870983325939,0.282359660820259,-0.429531125956302,-1.253673956577,0.135073384246345,1.82631379074145,0.52836985207696,0.952262813981745,-1.04915644388198,0.821235045973891,1.59291474524826,-0.219469649335623,0.0658700929544932,0.750599677047317,2.83149831170529,-1.29097973200759,-0.61209438464115,-0.110575445165925,-1.08244847535999,-1.08748822423528,0.527413058293489,0.385168204172233,-0.0550073563780271,-0.908954605818631,-1.29795670178234,-1.25714128622312,-0.549903581069652,0.289325095396369,-1.94265362535705,-1.2661264490723,0.944933597021983,0.755993728065006,1.92281976525186,-1.34787079023093,0.339859719457791,-0.823688357596108,0.0307669766042002,0.619751666074319,1.35833765350588,1.00866751611466,0.681956815045438,-0.148126801296385,1.13729506393681,-0.855537690173322,1.07074816750496,-0.126219140449261,-0.959367349351382,1.27070180756776,-0.422895505782006,-0.312853538550975,-0.280530720305479,0.790715290416976,0.290092640835843,-2.36522286466284,-2.03136120486221,0.467879031406613,-1.92082363181373,0.658901644508158,-0.421499199706543,0.600170500010943,-1.9802258235684,0.324791833087611,1.10579303181009,-0.661367405381848,0.587271406306567,0.664459134782241,-0.601799292240064,-1.32892799356794,0.0920669682626624,-1.66624203818663,-0.380616526273736,0.9801347928439,-1.341519241123,-0.89385567851558,0.597826554517072,-0.167900262530571,2.57633685253221,0.800353915135893,-1.76868771596986,1.25780636639637,-1.0832739059338,0.569970775549341,-1.93875955363191,0.742692258457575,1.48809153411485,0.350267166194479,0.287926543340756,0.117998062440172,0.352703077717977,1.1195572311183,0.0699587469956449,-0.85637250602491,-0.0879504117974297,0.780729949524051,-1.43041397215583,-2.289476355043,-0.883844688354071,-0.143490611855771,0.644420142774402,0.405383960268737,0.438801633329828,-0.0914413983776868,0.907146910081092,0.0343594261050362,1.14727629101107,0.531057043701635,1.51060216537126,-1.61285108231425,-0.190525143208269,-1.61978973670473,1.55593215342896,1.09119673883623,0.262331687064432,0.36533100321232,0.381272402588972,0.379201018561524,-0.12776098820008,-0.872195667503593,-1.6727113478342,-1.27523658877345,-3.24966811589215,-1.77575127148567,-0.433869520154758,1.00474684833615,0.748535086626997,-2.03935488150993,0.272763441035265,0.663210631766877,-1.60878488106286,-0.335279350319445,-0.520399904354214,-1.59977662468244,0.284305997897407,1.01688561614783,0.675179700532382,0.247666383774837,-0.0185383037240628,-0.563289105253451,-0.0871064614074249,0.0201400937037487,-1.69020845801127,-0.0474741789952181,0.730474077847,-0.4503342634317
1.16939897323525,0.84227384173964,0.682150797331853,0.856634707929214,-1.91043443131443,-3.88964804172198,1.11264184581341,0.753719605343194,0.0391392168841153,0.498471563177238,0.113648877342139,2.07087681286598,-1.0579748688199,0.784874110215022,0.420154432543229,-0.384814352887737,0.687120126178581,0.0251492083794135,-0.371625124712946,0.452092967269294,-0.513258827987277,-0.944473156539022,1.52553817911428,-0.0929202032951754,-0.915811547370985,0.0212223049145188,0.832935978994135,1.3978651435619,-0.911275660449078,1.43528679360754,-1.43475120227839,1.29113087221124,-0.552753963449656,0.00760044964729305,0.688123334492438,1.03295735935385,1.41860242240081,-0.00999104291678988,0.21965337547296,-0.719441791186108,-3.58575918650567,0.157655521938262,1.7641811949781,-2.80234921033162,0.193156394818669,1.87780930682603,-0.899648868093286,-0.322888457835718,-0.600224098787495,-0.796592855167534,-0.57391107094815,0.383029734487742,-0.55298458415035,0.703357338942372,-0.303090026821262,-1.40611335059571,0.836695123091349,-0.954588762835091,-0.87623499649461,-1.11330838119058,0.428511140767487,-0.562973189673718,-0.0484499437777693,-1.10662101877926,1.0333712440866,-1.34856048419803,0.75794168443858,-0.8304981307102,0.33878880354345,0.65953920992667,-1.59430377168569,-1.48177148641129,0.890950810904252,0.858777059282262,-0.698367481799332,0.882817305916355,-1.63272485041069,1.64906051780722,0.942446499554322,-1.18500828463697,0.34450698622796,0.763706030033477,-1.03690028712552,0.246377348282908,0.88938693635044,0.231887496788281,-1.14362575727099,0.223540262115646,1.59924665329905,-0.584342166360089,1.95536433764372,-0.105888015658827,-0.0601337584594971,-0.771667606028657,0.575367180189626,1.09345168865738,0.693886338257015,-2.53314097302236,-0.689015405697708,-0.517665853079903,0.0111670396738091,-1.54951360726806,-1.91492581147645,-0.560025787272351,-0.031320500554379,0.150141169751634,0.00900079731339072,-0.111999626865117,1.5468446112534,0.449010970687229,-0.365181137812817,0.903141983727304,0.420821825332959,-0.395963938717038,0.311254824448237,-0.674831545649528,0.9846996504451,-1.54562386930342,-0.655722217361014,0.10015573651646,-0.410372750781984,-0.551584894996264,-1.65696225522865,-0.135392248451437,1.20333502348945,-0.0677596726654388,0.424626706579057,0.642232663308459,-0.49138976072427,0.633531894720637,-0.274590027094105,0.177304149577032,-0.642336619661718,0.253774203726681,-2.86916273493073,-0.950459803047822,-1.66599261877013,-0.249378951991628,-0.180395063297049,3.22686164812188,-0.530661427643332,-0.461615562167277,0.977957602417099,1.26225122665095,-1.32749499634502,-1.29200058302169,0.288566159349359,-1.07607994884993,-0.10913951239492,0.611234039535107,-0.147045782750507,0.644650926738587,0.879708482522595,1.34132560963546,1.40477478753062,0.164528397299938,1.35846481769062,2.00438433504531,0.525790093642481,1.10747274948227,1.06658004918193,0.980507270357955,-1.46600770122188,0.512786472509677,-1.3773756761771,0.569057296079025,0.0420338390524559,0.356423675913915,2.04567569238767,-1.33605045707913,0.0942914878022127,-0.995485310182788,-0.366431525723225,-1.14387414187797,-1.34619213794237,-0.206070575064821,0.638974837822134,0.0784375340996891,0.892866657152525,0.515302085993713,0.0290076740807363,1.96931934615184,-0.606385024381969,0.314419704659247,-1.71590577068708,0.785819085629712,-0.886725447698938,-0.777258305602196,1.28885038046411,2.20100882528336,-0.813974100405397,1.37483739513448,0.655648921658267,0.976867245146616,0.506686209520721,0.779764593610565,-1.25610605289094,1.36183041503498,-0.559551640413769,0.611369884803257,-0.356936317390288,-1.05743396870605,-0.176317553256756,-0.70106355967229,0.0401705627431625,-0.379269346312007,-1.07295698461778,-0.192983279136063,0.93084820933225,1.29533299431506,-1.3886708689231,0.0340134331570259,-0.780169405535389,1.21512738968769,1.24147993117055,0.672562018020529,-1.2664485702089,2.29937927865954,-0.0647666518516685,1.42365488271479,1.57918923924008,-0.0835952145948413,1.76439344750256,-1.38686810845928,2.94372608481562,0.678224995263514,0.093473544290206,-0.674127442021984,-1.54155024662784,0.255917150652777,0.559328653225417,0.708558403180146,0.69150406515165,1.19626469767247,-0.285541130546244,0.296713668017289,2.0598871362732,-0.0871666233825784,0.423232881347297,-1.1536385106453,1.22490883644782,-0.454790475903077,1.19396507561719,0.526529127365969,1.64258072192184,0.0843210928523939,1.84202439384713,2.67955636049826,0.377262202329785,0.380098057017298,2.02992164627914,-0.207751767315876,0.182876828126739,0.743418208002953,-0.825825463679407,-0.862512661174476,-0.669969809236764,1.35857893167909,0.676601737909795,1.2942644765966,0.968346137916671,1.4307670743292,-1.06682482520999,0.631202941457833,-0.474727670583883,2.05801816519937,1.10200901699597,-0.373241809100953,-0.724940914232655,0.509997287423982,0.869252088150282,0.00372180269134741,0.484475467161577,0.582999887706881,0.751997146971324,0.672192507546091,1.75657550983776,-0.225381322551557,3.13108799862547,-0.0471741418861604,-0.23145110106865,-1.22180462126549,-0.0379735864226893,-0.769539669202139,0.124126950206856,1.81510862337648,1.42031277081372,2.15213365536978,1.94308041828499,1.78745821301256,0.73738966310592,2.93819543494722,2.77721601979616,5.09477282217188,1.83880661599185,-2.03787614949589,-0.953911548590595,-0.0389126000097566,1.13531849020096,-0.378636725799535,0.195519708457556,1.02120107373294,-0.070647475241599,1.01097037958292,2.98513401399034,1.86110967014337,1.39667660510886,0.530049069785237,0.532245774963274,1.30995839449526,-0.398614587781135,0.170639871832468,0.325026817752454,0.0900001348151153,2.26968632648173,1.16399210861424,2.96251432048757,2.38989149943125,3.14010951542741,1.00040648344478,0.633865490825956,2.23400830941353,-1.20385310997322,-3.06240302035136,-1.07827654088311,-1.05332935867501,-0.886597554492045,-0.060597860945952,-0.894382647394058,-0.941521327047846,0.812882733020757,-0.261444343694847,1.96851596340796,1.42524340291882,1.48016030014836,1.01208780731148,0.772892720306605,1.34317916270323,1.02708185126095,-1.2225926275115,-1.08775677480307,-0.71608817599258,0.0854805973761537,1.82985215218412,1.95418285150704,1.08491283364896,2.0960198133752,0.247528942527575,-0.627430791526063,0.96688436310658,-0.141773574851344,-2.95290702867024,-0.518703119967159,0.691880303940258,-0.508555908123908,0.503275828032899,-0.194895763385536,0.656207695788071,0.518517015888688,0.320838421082122,1.38998001794636,-0.463951783378565,0.716435707007292,0.778000368105337,2.83831697348688,0.219237240701459,-0.0119684883346635,-0.142715886694218,-1.59261054890921,0.0256983097440901,-0.932911046128102,-2.66177064434872,-0.597763054100197,-0.811853551460855,-1.4289037296085,-0.40893014911136,-2.09886313922607,-0.520136888364732,-0.707996035130618,-2.10374581155368,-2.69782760910412,0.0530595167218563,-1.784770666597,-1.48459864815732,0.248458199511118,0.111961193828436,-0.374904777801659,-0.117659119784729,-1.12325392156672,-0.437988146319298,-0.0900671752222106,-1.25650437347805,-1.22275597747547,0.438324480466124,0.144405340510113,-1.67167261943667,-1.17623740925226,-1.4030865829109,-2.57251840998173,-1.33885768941808,-2.09770898173365,-2.10453676183542,-0.256270179850277,-1.93998843882869,-1.37031949565115,-0.915602556616871,-1.66958372260706,-1.65048232145299,-0.286952650788766,-0.318538978632434,-0.969238708551882,-1.5188189819025,-0.849778653530667,-2.1379188537948,0.305218553036647,-1.4135224504256,-1.9546537198106,-0.272981540566647,1.16997979386604,0.981360087439996,-0.811386416381652,1.17514791246132,2.3862957868394,-0.708910042732683,0.797164865247922,-1.381026114786,-3.23429508784657,-3.09686082157163,-2.64358359974917,-2.43958421545482,0.198583002759387,-1.74501569763435,-0.849261289422102,0.590361513813393,-0.0745068282241846,-1.80123372136248,-2.60600708383015,-1.68533352008102,0.13047502255088,-1.86835537990021,-1.96589979287833,-0.271096003368442,0.453449575895822,-0.758231248157321,0.597804842950302,-0.0551412780303566,-1.22020226136902,-0.472471915561516,0.772011897514923,-0.256055217264797,0.53974558622458,1.70985273615578,-1.92730795564973,-3.39380745407053,-1.6549225549766,-2.44825666063015,0.0241632895685875,0.270359094029829,-0.0992784387840912,-0.712968464076186,0.206480228514746,-1.39875990699834,-1.67452036068802,-0.637907510863638,-0.979033396283965,-2.00893287362104,-0.327969719906055,-0.216666438427282,-1.0265068113128,-0.761850863007739,-0.185674688464119,2.10086383952509,0.633366427616592,0.754618414399284,-0.329881785715559,-1.32263980411955,-0.402237551998225,0.271866504761901,0.251966715413069,-0.233017112613073,-1.55180576701393,0.0517191911119274,-0.879636960210644,-1.8922484957956,-0.579374031320945,-0.00955469731483784,-1.7256276289802,0.352487117453135,-0.781973237009185,-0.174831211302165,-0.894071768117733,-0.540673864724278,-0.711200012982626,-0.845715637813382,0.174723356019889,1.22698869956196,-2.30800931312813,-0.868377813643868,0.0406097084644343,2.80567100570671,0.318856788111062,1.76015485603477,0.215569442887461,1.41679256694965,0.192368865752973,0.523909724611084,-0.788394581034979,-0.0764627202980714,-1.30310661504509,-0.590703626799904,-1.1304974941309,1.73054054239321,0.169885618027164,0.49571086460383,0.667669731887241,0.687522450512134,-0.611016635304711,0.290690371930077,0.238536400875732,-1.01699140304853,1.26756229119519,-0.616080838801688,-0.205256675649751,0.519441083126144,-0.901688377712843,-0.756192776431354,1.71909363773699,2.33441208977522,0.778308599651784,-1.60948341407473,-0.0491117212785581,-1.69396834847959,-0.49780926852793,-1.08828189268888,0.283824490290228,-1.49910676142,-1.44324905656259,0.766350863107758,1.10363134695497,0.481563771169512,0.260618898597195,-1.25218590120226,1.48133979865888,-1.14803370351505,-0.164573338026184,-0.0547505606678868,1.17485989669856,-1.29671371015242,0.302615742859145,-0.857354361419762,0.151788150491425,0.328891036406971,1.2107785042409,-0.360369960443563,-1.22859019719677,0.894594236428342,1.58285152364851,0.144602005701701,0.732227466650796,-1.01888534963602,0.649139540909707,-1.78146259019029,-0.666964870686482,-0.344169571583647,0.245597736729032,1.80160419987074,-0.013585082598077,1.99621088080679,1.79384115438888,1.4031485955747,0.885536962853363,1.75501757263953,0.670587875246653,0.512869747302585,-1.20111513290071,0.346279075674123,-0.429329067482218,0.0390726647926662,-0.126018298747853,0.974700385327982,1.23244935929824,0.75867787774198,0.938507740936772,1.43739531086706,-2.49077216450906,-0.0723129373235295,-1.736953004159,1.7576976159192,0.610757626835419,-0.364129032280562,-0.878901622682792,2.07481367926075,1.10966926577066,0.568148197565124,3.65860405808736,-0.504385032584355,-0.0639654314022451,0.468856946238254,2.20280095725186,0.417572790286514,0.047352498448654,1.23672660931226,0.39293438360032,0.413923060385718,-0.911737826858632,-1.5581636560855,-0.64508852542377,-0.138920018386531,1.77946239826231,1.91568511718753,1.02952240685233,1.0173286717463,-0.319893332057803,-0.284544089926683,-0.846570048987667,-0.479697974300858,0.919137864100548,-0.862302978531302,0.967280198116098,-1.53901218019962,-0.114576523824592,-1.26942032571727,-0.481007443922665,1.85514084152285,0.946381288284309,0.590095058839853,-1.54257883363507,1.92463942662306,2.14664192686109,0.997825690947992,1.4281522160931,-0.263507645007794,-0.0348637084049032,2.25786065156233,0.719131885511854,0.743059876713886,1.95233337295102,0.97985455857238,-0.264970226997312,-0.516190016643714,1.61604133532124,-0.510264688579423,0.740140473043598,-1.04354745122111,-1.70000793194823,0.131362432615128,0.841913764785262,-0.124423707575995,0.782666070888952,-0.730115631436946,-0.203310042770959,-0.841536792768794,1.15695899096143,1.49677516542129,-0.362239756928139,2.21541275324026,0.13990634987623,2.63422257660051,0.829219757032247,3.28657736070505,0.940162163330753,0.833079595889203,2.82282057013884,-0.804214100332696,0.628645579212589,1.00603975901003,-0.299575641930052,0.9187444255803,-1.96333972597974,-0.574262102535285,-0.0278391488586641,-0.01269144804392,-0.165481731157911,1.65379632135119,-0.467311550819858,1.35689508493354,0.74610599115856,-0.739030744043155,0.180144063378115,-1.54603897329857,0.537242834971741,-0.727469990946066,0.463634933588691,-0.258315217570065,0.035125891459471,0.460545886851763,-0.608528952932486,-0.853519511957071,0.842758589590397,1.50902190264133,-2.75988729462751,1.71598556297789,0.795607180982408,-1.30319324792949,0.132609848393027,-0.470470386020617,-1.71233229632201,0.938097085101684,1.41596924722519,-1.25397423666755,0.332322888304158,1.10069557389149,-0.74043260071869,-0.596371213635758,-0.298823793672643,0.132990227129267,-0.141059477777233,-1.15008252034138,-1.13166177251562,-2.2296596676458,-0.966926584762519,-0.982495024347453,-0.764089161698039,-1.07443224526717,-0.442840754748984,0.0180160554981764,0.155947476393686,0.00917473640071076,-0.316242676124303,-0.71244465716576,-0.614651514617355,-0.862659688197221,-2.18483625254943,1.37779236050618,0.0579613782955379,0.793050486156863,0.609650747583416,-0.7076016643615,-1.46629222158719,0.387336080356113,0.632516380962183,-1.02354350401422,-0.670703342286481,0.446193690631688,1.27260762010419,-0.735534719394784,-0.328691341041667,-0.567010691898626,-0.221439144940809,-1.46414019647153,-1.35792309705209,1.38279750060553,0.820626055399599,1.32669977947028,1.05996488704128,1.18188379219551,-1.07601664470159,1.20309990230964,-0.249105542582646,0.267306802095858,-0.687248625349498,-0.639542315913196,-0.132908603135422,-0.0788399804744103,0.629034197159349,-1.15875179504777,-1.45773894929871,0.358276817767547,-0.175298578110719,-1.11959530483079,-1.16080433586834,-0.336899694543659,-0.0458724380570598,0.0861771734293104,-0.640466018698889,0.723935278527859,-1.51179174031648,-2.37985413120431,-0.205452800624875,0.234297654709309,0.883423725085333,0.431743706662889,0.49174355076461,-0.969786508809738,-0.590409710721553,0.580003765546659,-0.558863415222413,-1.68248397082205,-1.13104370887277,-1.45133440469229,0.3827877946555,-0.895748300370603,-0.204671993242026,0.505477857518657
-1.91039039750661,-0.789635088844541,0.593566475200025,-2.07243341874961,0.855856666782743,-0.902964145700179,-0.782291880647869,-0.0645969049626668,0.750715847855131,3.15414336952568,-1.24871275163619,-1.18254242687144,-0.470410489969247,0.0658852860541041,1.17300573295994,-0.795195921641074,-0.362148809353148,2.26084189794694,0.0705064178043276,0.240678131593693,-0.156736917493614,-0.844968932372306,1.18951326275574,-2.10928086467772,-0.521156916535967,-1.21142065231277,-0.218859015296744,1.09431567070343,0.742691004895362,0.994849282151513,-0.0951782457631589,-0.423027565496623,1.99224699667558,1.2418645151861,-0.341474207689231,-0.267866827139515,1.92388185888924,-0.931383537663271,-0.0951530332518686,-0.304366101859947,-1.38051695374365,0.885927664293302,-0.152640021808354,-0.724494756265894,0.0973920678944271,0.718388142995446,0.808913449787915,0.0861071284537723,0.488110344875836,-0.0127301980312912,-0.137675425849852,0.448058287150431,-1.23306228022644,1.76011871208706,0.428375416987483,-1.20284808078588,-1.10981261036124,0.986780668298949,1.46103903706343,-1.05540158108663,-0.444920547558626,1.10422324358028,-0.315525518102238,-0.687768250042208,-3.49163974012783,0.633443287769913,0.107856933348547,0.149976662663409,-0.430705422729627,1.83247094962929,0.874003719581103,-0.871765438364632,1.21241870408528,-0.709333490562164,1.01114608456813,-0.0690967368240989,1.52748748441952,0.715241370153311,1.49405446451017,0.864432208207454,0.210833294694714,0.0816457469695584,-0.143561869697776,-0.259821336209009,1.07312513505086,0.775129316034947,-0.40892553578472,-0.29634167562768,-1.08668273493823,0.87435666890331,0.329596677017595,-1.82354042463321,-0.653307461805665,0.31894728703397,-0.764416429530976,0.0336576196345132,0.914595431554424,-0.792563410359876,-0.234845130413837,-0.940156028029125,0.27805948973955,-0.435817757727249,0.678925233940215,1.67267470164021,1.13271565990759,1.25769364170618,-0.740167866066411,-1.50221667545681,0.480307240950029,0.674913897726644,-1.17556700863981,0.349295160601768,0.674905125214881,-0.458873482558681,0.384536481878574,1.15808656674883,-0.36340057521619,-0.844910709541622,-0.164300571225549,-1.17900322262089,-0.4527179374378,0.308962957909494,0.981670173550811,-0.594277406803874,-0.174271192614797,-0.960238310695035,1.34951533676506,-0.329992155319275,0.786564326030228,0.75093143758525,0.0842321270798056,-0.652147619287883,0.360511758223108,0.121939306523288,0.344621988595497,0.117701599900292,0.731558066650642,0.490027998490458,0.482714000973745,1.30309958517223,-1.0145976051646,-0.3702846638777,-1.3318996790846,0.641650123570526,-0.819915048750927,1.66602485988588,2.20246684073448,2.04386816429622,-0.530945533576509,0.773889350840744,1.31444913389065,1.15861719091264,0.820114819355396,-0.698567227286916,-0.507671661548456,0.438180633185457,1.3084288760241,0.531879100219972,-0.242484410191559,-0.000658293268768143,1.9166161016733,1.01115526143863,0.678347959234905,0.8638555259887,0.537526043555607,0.510359192519303,1.38985974754577,0.242822097246485,-0.915482860225576,0.629454670352136,0.174801892485229,-2.8892259004098,-0.25840033913648,-1.0101743149564,0.219446867896345,0.604482578472784,2.45605996079077,-0.0548351896675573,0.0824103473184272,-0.605413178081118,-0.419059517858909,-0.558027792016854,-0.122293606981808,-0.910949559945966,-1.28789991856152,-0.684010340504589,-0.805489487951619,0.391863796287779,-0.399535844049702,-1.23948158037742,-0.669920284971489,1.42514872641439,0.457100533272921,1.36338985228464,0.266367298428044,-1.04992706859214,0.906982329000442,0.258695564794409,0.139663919598197,-0.378856740826814,-0.207576307765524,-0.625634073234969,-1.26280690694128,-0.181072684027962,1.32096415173465,-0.490081020841458,-2.4739090169263,-0.756332799242651,-1.79063569209946,-2.09178677262876,0.295694780018838,-1.94663501955878,-0.723916572271065,0.466294349842144,0.781052800944654,-0.840533675408483,0.177327653818444,0.354994570985778,0.311177226532606,-0.739596350415237,0.41807738526155,0.425139812698817,0.415972428100799,0.629845967676747,0.593162139552961,0.679965764023404,-0.457373900255811,-0.41794598334869,0.658417216871121,0.0648853363722907,0.164087306213377,-1.36174820145184,-0.245085175109759,-0.451176420341473,-1.31946820579867,-0.546005725326419,-0.738281520222424,1.1773259317049,-0.872424892023243,-1.56931365417233,-0.473279054778607,0.0564682120489333,-1.70125603466133,1.76717105117592,-0.78577555231677,2.31314392457038,-0.622994723254268,-1.17673080460702,1.74665398898134,0.119894746207255,-0.708012328483505,1.50195230982842,0.0829672391526614,0.0666760309382643,-0.0588264494039664,1.12504575345014,-0.510671868049853,-0.330438533914074,-2.35646060912974,-0.919914518028506,-0.604177506291283,-0.213713270594335,-0.593130448672027,-0.343054046796274,-2.24543919189791,-1.46180764258148,-1.18033439003502,-1.8986801870223,-1.50162710745143,-2.01722829209356,-0.195230101129751,0.500894505254471,-0.715405187255351,-0.238082065230756,0.625120082754446,-1.75587728138708,2.01512300940624,1.76676398342892,-0.67709232320728,0.604174031826926,1.06408689098617,-1.09446794392233,0.79602617060519,-0.10165876005458,2.30657383860273,0.176356417029829,-0.895189341318272,-0.332917323798409,-1.66848279162681,-1.33678066820952,-1.0246336168906,-0.612776328824696,0.363730480050929,1.44892390505646,-1.7846319192895,0.399873264626597,-0.184617306166066,0.606541338795272,0.0115794286790842,-0.979548847310126,-1.81244383889944,-0.183187211768106,-0.293285435238034,-1.24584642387591,0.366597604534414,-0.279266329649002,-0.310889976636759,-0.577416427560242,-1.28890356399036,1.6018322335421,1.30223062868654,-0.449440741755759,0.0906366420555825,-1.6182807433593,0.520565569318588,1.11582719786837,-1.19914872359575,0.071015744863681,-0.474425429183461,0.293594900598986,0.899808155183867,0.260457839846798,1.31052602269226,0.993853005372035,1.64513256695306,-1.05503275818724,-2.36882107490401,-2.4399226306997,-2.28646671183392,-2.56107206203608,-3.0546809124955,-3.17979429041615,-1.46207181962671,0.912468117813596,1.53825977850239,-0.346942902873892,0.424432602615704,-0.502631865844853,1.56059152312978,2.37338313983259,-0.26526153261166,-0.966360378208748,-0.755318299253499,-0.754563949483543,-0.244911727954021,2.59541727937088,0.491256139676296,0.693840813592425,1.23728016967992,2.05493361998551,1.0936955978918,0.664228609986637,-1.15931479298053,-0.630513423954994,-1.83346245272068,-0.894856434030725,-2.91517224807549,-4.26123022862933,-4.41959120340427,-4.79794445257833,-1.37529515566708,-2.74116837539192,1.0805667549354,-0.66368889010059,-0.642951696007404,-0.768013165490508,-2.37980105988549,-0.0204477601243644,-0.324111810658188,0.378316308152848,-0.870534426247065,-0.129288221420439,1.05839941419777,-0.134151248071031,0.557955234523402,0.91239292630604,1.39365540721386,1.36107426188831,0.412167851888543,1.7272121717676,-0.53737917320489,-1.17895546783549,1.74702865231495,1.07178445829687,0.270103554782774,-0.888339700663213,-0.586679329088886,-0.770163004987655,-1.75884773183264,-0.50407926531744,-1.18966867009603,-0.252825729228621,0.35696550390152,-0.591780342768642,0.826032538122886,-0.0988275987763289,1.82383941584909,-2.31760428251163,0.87439063222121,-0.0437948918149205,-0.931492765592053,0.963100677466736,0.621285053299641,0.295235129960993,1.41701500537887,0.0364444093384636,-0.0244737735995161,2.1950813487974,1.27478621091296,-0.283322887626087,-1.64219103301642,-0.778577748606846,0.713320623038648,-1.21955191586677,-0.191796964257528,-1.50540914006428,-0.658495359717281,1.3039220238794,-0.250036651040622,0.537102035516424,-0.391354298760965,0.316894654021141,-0.326566643936662,-0.275282267225375,0.279857398888642,1.24527339593729,2.13160567216185,2.052618452465,-0.252276695067108,-1.52490897768205,-0.737064858526192,-1.47297748127902,0.985558445273627,3.11318760856315,1.73250264262602,1.16665488717617,0.134232346934184,-1.00174926964453,0.599512265075127,-1.53930367971697,-1.75704677012984,-0.204552570187652,-0.527550174790302,-0.20033028674936,0.309777472740657,-0.110077484754035,-0.76156558313243,-1.19015812921486,-0.132186567086416,-1.32082022856077,-0.0809919773597554,0.297438249467608,-0.980558641493466,1.95230655573951,-0.0850736177666197,0.145048024724377,-1.87478633699801,0.783508028670321,-0.434658687793038,0.26101967578051,0.223882831485501,0.527934993845529,-0.255978165716572,0.406918129030616,-0.257814607691224,-0.722675179956297,-0.302395072783238,0.552499225808311,-0.161507550223155,-0.283593831766991,0.295396292953085,0.545089834218737,0.415317998012012,0.705071714184178,1.10294023411322,0.54977665419908,-0.463524429606724,0.366942945457033,-1.14727982855415,0.523439498195537,0.285037162652631,-1.55085610199042,0.24268413535031,-0.899722566443438,1.4203945623769,-0.240137836682805,-2.47220930302232,-0.0513976202059378,0.0589889439752121,0.691028013690989,0.045527778546642,0.755648860536655,0.0673567499232169,-0.514843062985618,0.373076815530518,1.44497169235563,0.682515338919485,1.18373740127983,-0.185669625343916,-0.19059523175642,1.2604847472947,-0.733785782425367,0.725708959090811,-1.31033804948453,0.887493452270668,-0.0548994443443049,-0.475191315097849,-1.41848922330637,-0.587269651619069,2.21859462653624,0.650375432604404,1.83800704908834,-1.0508911199194,1.04241741666449,0.532899802688581,-0.54867040982762,0.230560509042726,-1.90924519648231,-0.436485839004634,1.41756660186252,1.00493149692509,-0.728927023471146,1.11614345833232,-0.150035363479597,1.59461256954814,0.635129391182026,-0.373954878790515,2.2180366858228,0.440130060206863,0.571799012889733,-0.653525953475963,0.798610264531866,0.694781620208386,-0.759305023338367,0.738066706157688,1.37918242695232,1.52674564474168,0.54816052688552,-2.54540299148923,-0.527378596788535,-0.0144045244493056,1.63217199975495,0.560396890511672,0.573011432805022,0.749617894309714,0.648576423834588,0.373526770371474,7.21134665969622E-05,2.18345976734631,0.215151780301559,2.25228475284831,2.76940151615944,0.59911560486725,1.29859209866836,-0.491111322232282,0.292653753708103,0.675786696181926,-0.935679703154242,0.442238238110457,-0.0354818257410246,1.83718333084557,0.13310099368515,0.486050598631741,1.19540250839595,-0.226963386903034,0.148194832677682,0.265091527146881,0.319903115672341,0.621332584879463,0.31410259166132,-1.08475113566948,0.620084189997166,-0.298283366037352,0.953201072611824,-0.620526299331664,-0.152833122739574,2.06927255704564,1.30386089343086,2.464076905534,1.62857476582599,1.80462871981493,-0.0109167728890306,3.9486337117481,1.98020664793334,-0.905661593937065,-0.00304873878662314,0.677271315052486,-1.61623711346386,1.76532116812009,0.414926723618184,1.34333111017728,1.18196278737711,0.470678229994947,0.190264841317745,2.36176950165776,-0.449519445647056,-0.278127953820608,-0.194944015106011,0.198757146622898,-0.460961371309304,-0.885272121601518,0.03723249567836,0.649274065957789,1.30308357766541,1.38624462984278,1.01587533299101,1.47329467548448,3.17026009768021,-0.693904098712536,4.85907821313241,1.66348855140223,-0.364806913427758,-0.674114449500239,1.83536532658319,-0.588465648002782,-1.00052068501904,-0.166457978837561,-0.465635997588934,-0.80491679722578,-0.659404406194809,-1.27236651567263,1.79978419064476,-0.387705933815503,-0.352902984989569,-2.01979490260098,-0.246183112269273,-0.649006548640352,0.765482596252581,-1.78029357598946,0.782649077273548,-1.69426572818982,0.375002435591157,-1.2889146129057,0.269597301612778,3.90381976270673,3.57336423283908,2.57816819805731,1.81795899548346,1.40871272163753,0.627480882265502,-0.975619693556639,-0.995288403168999,-0.767579272641105,-0.910526098737239,0.417022643758724,-0.426176657874398,-0.95318405327452,2.26517235549265,1.30913736564146,1.52722403680273,0.538515552965347,-1.26590038691008,0.684227184136004,1.49260564050382,0.739100397271791,-0.268094188955916,0.37922918555161,0.7930211363802,-0.205571245920074,0.581797169644791,0.217054342944255,-0.791070583757768,-0.524897079018185,0.671534856174966,1.52753916060849,2.06285332010086,-0.761154237746835,0.140705421275794,1.38104624619588,-0.518597157734382,2.55702063531872,-1.37242765301776,-1.3555500041107,-1.17051705521542,0.456830243204815,-2.70330484394065,0.420597791639008,0.223912314511475,-1.48571278884675,1.18535877204745,1.65372109143848,1.21429476471127,0.0945097518650599,-1.40899249843896,0.76926234179226,0.00406308754616043,-0.13637163403799,-0.339827609339437,-1.4635428699143,-1.37744561264036,1.70951210443577,-0.980600024498263,-0.27727754944212,0.250933856842127,0.252689542230751,2.96394282225154,1.24771142812313,-1.48363329425465,0.870080043478848,1.55833210045418,0.381903261602983,0.0634516576500837,0.722109033964737,-0.335616687156208,0.814439960380234,-0.773580996778475,-0.800580150943808,-0.41349139266428,-1.00568589410564,-0.862961611463258,-1.94579960786258,0.0851273034625446,-1.23691945607213,1.2877743363912,-0.0839044999345601,-1.47481940317704,0.0203504114353024,-1.77080073085476,-1.02416351710415,-1.36531420180643,-1.50385989145839,-2.42433336245757,-0.63000049403884,0.568422958974492,0.755985770302046,-1.81095310551381,0.655496695538732,-0.18882391466012,-0.799661445571663,0.324396524544248,-0.258735639013582,-0.914084840399961,0.539129968990854,-1.01310446824003,-0.125296877445661,-0.507945099508998,-0.0697069427598783,0.556043780806591,-0.768639783435347,0.533306658659952,-2.27574080539257,-1.39229767711939,-0.669697331055488,-1.01371083278051,0.47317786664007,-1.60922441821037,0.739403154350859,1.00784038356286,0.415771861161382,-0.91182407821352,-0.324566536900397,0.420101582849922,0.147499232730016,0.107823827691604,-1.22321856220393,-0.793710220293273,0.907332970175952,-0.415972721121236,-0.825274415142421,1.14829356787462,0.882614397733649,1.23052288318531,0.578183316408354,-0.293391907065149,0.464515469442144,0.300832510994551,-1.16456270430836,-1.53480069038269,-0.501268319567374,0.944116403186571,1.88115998248345,0.191738233367812,-0.824088931636407,-0.419144420623684,1.14659862383656,-1.2581852675435,-0.0901406419956261,0.85262665710455,-0.617789286712985,0.273015881486743,-0.0580850714591734,0.2047228710611,-1.70141729767701,-0.833249616067987
3.81293749964669,2.09801688826772,-0.05947369895694,2.24232215865107,0.763220966986596,-1.01024376238372,0.665916649333417,0.324086558606607,0.0540750974421883,0.740720578283789,-1.21929195828513,0.440149560235049,-0.186830710188154,0.00821272301651888,0.375869055861528,1.57289090909194,-0.543395270419794,1.5479715774579,0.824377890110359,0.398115967466351,-0.579476212219762,1.02896738359275,1.62572532340025,-1.57885356574898,0.33532630213728,-0.0863238287158648,-2.04200952443647,-0.775537996223088,-0.0451823583365108,-0.510280203621102,0.63877279085286,-0.84208764856641,-1.19731276348761,1.00166435946924,-0.746322046071064,-0.502832166273106,1.06649320538246,-0.776405936619929,-0.861589129112752,-0.0277451543549459,-0.0685498387127429,-0.125780383981555,-0.434744588790049,-1.17963651444373,-1.45598342017432,-1.62259677662355,-0.295209658027112,-1.80944765805499,0.143993713732342,-0.0582615896595639,-0.454480842995577,-0.32141358770096,-0.40675814139354,-0.91706130903913,-0.110894158492837,1.24237037787637,-0.00348813934712233,-0.652919782759269,-1.18370362398466,-1.00905338258211,0.524895577538159,-2.05253045904596,1.17194766835696,1.19241558678098,-0.665801393373058,-0.745811514859596,1.09359398374981,0.573656058343716,0.850276739070766,-1.43603540235713,-0.22253788164839,-1.85950376627232,-2.51170361419852,0.16627363860702,0.301670153615892,0.952570467297917,0.654051109518984,0.431528241956702,-0.19098626556982,-0.866075777843775,-0.307559718872614,-1.82654373941492,-1.36000866854534,-0.0395313306330671,-1.01504029189709,-0.175960984279938,0.0898357874350702,-0.64136444412119,-1.91691759817426,0.377459267787544,-0.899405405392808,-0.64821724914571,0.878845272954634,-0.73094353976837,-1.03653717069127,-0.203528899349167,-0.752864800217483,-0.530003875744206,-2.10892167192963,-2.60240351800643,-2.64405577557173,-1.33345971456503,-0.478163958964959,0.407526944411322,0.163654189204187,1.71108059736628,-2.33601609806042,0.776238416964898,-0.105719756664612,-0.325490749223266,0.776726931218898,-0.487885121399544,1.04329753334566,-1.033194933646,-0.596914063772338,1.08860991585707,0.849395645662162,1.33504446149904,1.98426595954446,0.903970626538549,-0.443538960044449,0.324367636383437,-1.54848252882699,-0.128827615142858,0.0310529596368371,-1.36017065467371,-0.59999493377725,-3.62161630165713,-3.77469959727453,-1.73268577869132,-1.61434694524149,-0.603899554115797,-0.547961554864639,1.07434324097756,-1.64166097171275,-1.34103302987033,2.0350413684635,-0.107263737697391,-0.266611663870422,-1.70144951946838,0.290853726894758,-0.83272438980915,0.67417878449686,-0.634074436064986,0.819134511254368,0.409340820726096,-3.11750290719301,-0.653468880428224,-1.29049412190066,-0.314132071047774,1.14268649304246,-0.70128520943981,1.72409406664408,-0.60507141517646,-1.14052035749981,-0.986971799628334,0.430828399491548,0.932635910223753,1.50279958831905,1.2825440339643,-0.715855254221526,1.26965329302112,1.67432399714296,1.70607847341291,-1.02862429734441,1.08160581496506,1.72442251671572,-0.338346268398574,0.00235196627788156,1.05672423205694,-1.05211893295991,-0.687423979453316,-1.38826033228533,-0.100389702801749,-1.33627349298045,2.05827628971081,-1.39866268645883,-0.0389769873437626,0.0580095074710514,-0.0543639013119735,-0.226495742382898,-0.121127599713864,-0.276458765139322,0.295346699690898,0.748586034641117,0.601285120794471,2.67891440072004,0.825411722113162,2.13203730706628,-1.47443309826808,0.294534593365458,0.0070815314046554,1.22891633529929,0.152889367094168,-0.255568121655212,0.30349577212082,-0.278238863667672,-1.81094988597227,-0.178174096255529,0.436091090902829,-1.64972282720224,1.456272787009,-0.879134595068979,0.709873917749178,0.00029079342112365,0.540424669609078,-0.612537337517217,-0.257263560968317,-0.235071071486092,0.589627588248351,-0.152441733478769,0.679999447775955,0.987973110194314,-0.102799401256116,2.63154832735882,1.56800511666681,0.851325161548623,-0.499077979686066,1.25422453549592,0.45455662458596,0.60252167425353,1.93250726870743,0.238634866848956,0.68879623212688,-1.95133072719982,1.22767783425349,0.35375668976204,-0.395857261429801,-1.28401659604251,-1.10450533400648,0.759327525242535,0.124411737659541,0.210223694484319,0.026093209646902,-0.680383860069967,0.311744137309414,-0.47560884894044,-1.02197506008096,0.970719321234253,-1.37430961269968,0.969532403091095,1.57658852951644,-0.0643084125915118,0.917001176710226,-0.945140224592831,0.635506235512599,-1.40664581398534,-0.861922358515338,0.446278954385499,1.02272637828714,0.15279282128004,-1.39855347277072,1.99398081509982,-1.77686593684041,-0.0726566661086094,-0.751255467680967,-0.982821997677059,-1.09309638911844,0.113405740225979,-1.81695903125268,-0.0274736725982531,-1.34336700580694,-1.24685520620073,-1.06313001816121,-0.366639097468624,-2.09435064425355,-1.2792815209719,-0.618439259704123,1.47383559922911,1.50938992814733,1.38849295930466,-0.925501118193027,0.330130686191216,0.467081560734105,-1.45879503693481,1.10563444690017,0.501973915695664,1.17855820337691,0.846467543839109,-0.519308515750462,0.483625238973022,0.388757723354866,0.223012012446606,1.32006953390157,-2.20271931265727,-0.276918939099419,1.09582763510999,-0.860440714174041,1.45950763341905,0.816912647059576,0.109746369119952,-1.24654133553509,-2.1541419567244,-2.84752129548837,-1.60469114340922,1.84209646540362,1.08688276489059,0.442277672566291,0.751316358442727,0.545547997445541,0.337708254624504,-2.023865580289,1.4181209667809,0.249486270996508,1.3775501264696,-0.468727406284019,-0.00145880525953175,-1.27802696984565,0.803798861084836,0.619198135567416,-0.73929983888914,-0.585096349879763,-2.33409234481793,0.0796790971780093,0.611495549113873,-0.689754732066811,0.888737860685867,-0.242468340260713,-0.412650950941513,-1.0354076150338,-2.81181100343038,-1.5505797783873,3.05647208561634,0.406037600054979,0.915388587247354,0.48052589025957,-1.27841438658612,0.568134840588898,-1.048077178791,-0.00232606051322595,0.863965741622148,0.880110028167241,0.308280445999282,0.731411236230341,0.0746499959547441,-0.0131596981709926,-1.64012181296203,-1.54251854001445,-1.08916573886354,-0.708452162603987,-0.0422428498804326,0.156315051202464,-1.08258686881357,-0.922882375474652,0.405942901485688,-1.66772777270755,-1.66266380008194,-2.86848985811062,-0.725295011202697,0.491087933217139,2.96149535351022,2.1024085063276,-0.699716880581593,-1.19339973978033,-0.537009693034163,1.24927305450508,0.987419935873798,0.188791988246894,-0.624440654061485,-0.0357246266131057,-1.11011850937497,0.284086991032134,1.23022486448579,-0.571002727671831,0.863695512071901,0.0331882006353129,-1.48305922053703,0.920044102684205,0.621821225087696,-0.111868059014009,-0.108100728553328,-2.36965208905628,-2.40764010956382,-1.49736791780901,-1.91637294979703,0.103034248694082,1.86718311464229,3.4721795450885,1.96787475991504,-0.827996912394294,1.00230491534377,1.31610957231864,-0.0900743107931275,-0.263454468231453,-0.0922915986206043,0.117935005633258,-2.62762317089361,-3.12629262818855,-2.73940148461347,-1.03469326075386,0.87695613414581,1.03619027344343,0.193643775840074,0.0433853399094904,0.720975461901769,0.772485246029413,-0.0731300284472364,0.470968785712935,-1.24542284859538,0.503596119293467,-0.811992074066943,-0.371042599313324,-1.10808668164412,2.01088183741769,3.71833722979772,3.20197535036964,-1.69257241923502,1.61915249837739,0.64255474164515,1.31122683140611,0.32211103061949,0.817687003668213,0.577301950225256,0.332396849331887,-2.34008087104471,-2.92199802281145,-1.81908608047897,-1.39620733474073,0.774360156977106,0.654188741860457,0.211776407669634,-0.480157361120574,0.845269402831873,-0.92321287165839,0.507131233622599,-0.489712488961997,-0.420132238743246,-1.62254148814739,0.708468690967953,0.0692512209245248,0.196442387247239,3.81146306985642,5.51768272048351,0.949427126041474,-0.464748866884331,-0.771684463458034,-0.123273406681176,-0.722926935390392,0.712957833859876,-0.652334042706109,0.0530878099847551,-0.979709681140072,-2.86666837966526,-0.510706702768956,-1.0559392324388,0.272067119069959,0.953263592635036,-0.60731632853582,0.43905386060037,-0.0182519806098929,0.70509657146384,-0.492645472731843,-1.58687576016619,-1.082033480689,-0.725882125959583,0.259967317684633,-0.307120504671293,-0.0124201212219655,-1.94785565261191,3.15493080757199,4.41289491051555,0.841120893983854,0.37212449588389,1.36730137148626,1.50003957430072,2.14532475196911,1.25092233045413,-1.10367255525084,1.28517580939565,-0.943408917293444,0.751675697489731,-0.790205791596887,-0.119873742686511,1.198424765607,-0.521698080218191,0.466420668617088,-0.43032393261132,-0.387800630721343,0.632206655960662,-0.274736885916071,0.683147364896233,1.2083468485447,1.01884897809187,0.134238271134902,2.15336499922001,-0.67602176940416,1.43168385083297,1.62692111381648,3.86327045113362,0.434632512717546,-1.02437346325683,0.905520090269645,0.343792754098989,0.654811755683282,2.14356238312036,2.90167632825947,-0.554067225891255,-0.256216377223123,0.0515086366971622,0.665878866106906,-1.30332484754163,-0.743398732188377,0.193373242140729,0.193431140328186,1.75873958828912,-0.485824422252107,0.424776813470466,0.2755776712465,0.709528344468,-0.247111050611734,-1.26750974848572,1.17253719253976,-0.60584544664513,-0.475242557737546,2.2261006986951,-0.807543354187379,1.30427034567127,-0.929125154989541,0.160927914328163,-2.07330590130629,0.343485868714094,-0.386538086889511,-1.45737656233071,-2.0817158118633,-0.769217838281394,-1.26791120249352,-0.239586955998161,-0.633211988823743,1.41567719558172,0.676179803366448,-1.11281823802376,-1.38857848713582,-0.790117974883746,-0.264126352341274,-2.3660514975849,-2.72949184282695,1.08573114795016,-0.0406870084641333,0.145438199725173,0.175071470604174,-1.21143410074657,0.242222072661192,0.965936681237944,-0.0992067433558939,0.866351937793388,1.28671026940785,0.32152999421471,-0.024747103673641,-0.123436640595927,-0.481397015621311,1.70372505459969,-0.997358397381667,1.5777095423974,0.000835724193607671,-0.404407650382781,0.932661711511753,0.783485601787591,1.30096960900604,-0.165896869501162,-0.46623385031103,0.283038608325282,0.867325882558933,-0.999234715474213,0.779954095334766,1.62855247193066,0.416167634549051,0.087072318591851,1.25267177865947,0.345157787476998,-1.27083649451382,-1.32159009136992,0.39525231602465,-0.801167157807478,1.10396396523985,-0.776285326344024,0.384430866004186,-1.17276182076437,0.683040345822815,0.269759129616954,0.22454210519007,1.11706975378216,0.506041963772635,0.855619100983605,-0.4751429119516,-0.297316277581111,-0.301865382875419,-1.64646929110014,-0.25804387168239,0.571012320898444,1.38190798512267,0.859351819011598,-1.29333276481199,0.130938869939332,-0.335113966273827,0.300140085638672,0.451521507251494,0.0793391433013978,0.0960630262359935,0.0236419151707248,-0.0506578285083395,-0.905064796181089,-1.45563424026158,0.549591584891839,-0.94269388934131,-0.847782455023807,-2.23847428128521,-0.363942882074844,-0.973741029930808,-1.68548453625765,0.8979024975751,2.11270435587506,-0.834247160853581,-0.291078687070592,-1.34548259850461,-1.82998298264377,-0.113936303397017,0.930445428910728,1.46113682877118,-0.570662215950199,-1.57031329319135,0.165825173318046,1.62343502762433,0.407646136908598,2.42295368885042,1.48678292881278,-0.733802781764505,0.814237919183489,-0.0854594389707961,1.86681333674774,-0.111513334731146,0.78864037728224,-2.09700445784904,-0.334428488244838,0.168812845379983,0.889203371559692,-1.09921318667809,0.772737167211727,0.981777614697147,1.60628175859493,2.04023113176661,0.495289286507379,-0.237786004900689,0.85232702365589,1.29126834285432,2.19987436411334,-0.871300364781797,-0.239723621653403,1.30588115952232,0.586276509018477,0.0698823571983376,0.687984064911638,1.23737243638398,-0.809126822449926,-0.386779025545697,-0.122388989862684,-0.409173186839192,1.3617559851964,-0.285910762376894,-1.34595848832914,0.184499064278753,-0.140143002254694,-0.911756344745793,0.229785821200064,-1.11909767429132,1.1136291593528,-0.115374254175132,1.95821778460385,1.19942748118348,0.669012189662528,0.00499981710036403,-0.83694145913517,-0.427652389297027,0.842706605747093,0.234877678275709,0.0256449637240177,0.406633410117945,0.784063032739458,0.770544508670489,0.525932205164992,-2.62425044877662,-0.244928503408924,-2.02062910734936,0.116069713546429,-1.48991486593253,-0.688951022873812,0.263904236500771,0.39696611959597,0.0516133438701232,0.0193865706517697,-1.10228615922294,-0.675833892821306,1.12544733710706,0.721221352879767,-0.302465227194472,0.388616438869061,-0.756143775339079,0.801695292253364,0.110264577773312,0.16868851737855,0.0268178626781245,0.316564087190833,-0.670635322398636,-0.133881068818002,-2.03830116726358,0.145925544697977,-0.725659085141232,0.246176339185271,-1.91012194410844,-0.119959764286597,-0.577937095697658,-1.04934115564749,-1.96325516432946,0.370600032458605,1.7088786783887,-0.64003525965885,-0.10059636653443,0.827272922103726,-0.640942454327595,-0.36248693015521,-1.57159254866716,0.890396535968619,0.129286127058423,-1.25315718660181,0.69271273724023,-0.603141698849087,-0.248944994278873,-1.73797468505947,-0.606044505346512,0.0619819630394002,-0.959892208444489,1.14081380270495,-0.755347686926493,-0.673878294466197,-0.957338522310547,-1.12170767795527,0.230932926528856,-0.85907533548668,2.34113048090925,1.33248779980939,0.733750337723343,1.04128085484715,-1.43114339097185,0.620643753174444,-0.323085032599502,-0.160876382658252,0.309790522469945,0.455188473451516,-0.255280638065333,-0.742859703389594,0.931498908268716,0.359939659564851,-1.88850142285726,-0.468864843479749,0.439428037881816,0.433035788580548,1.04537719606909,0.68503190527694,-0.354452838405366,0.376053891266009,-1.26113278063856,0.624068644409543,0.345184423742637,-0.473392358833884,0.412833213828832,-0.289163648854,-0.445056201502646,-0.0157537520887907,0.660189795672375,-0.762960709465649,-1.36821986901416,-0.523741517672424,0.154927331229138,0.283989860015916,0.751623878496875,-1.69077166383123,-1.80978575657576,0.263120616420576,-1.14110761767474,1.0547189603709,2.15303649511748,-0.94826010235966,0.889519740836603,-1.27319741604483,1.01374724279931
0.829242212291624,-0.329000802753537,-0.222060700534275,0.456602561323796,-0.152049310562643,-0.124340536741443,-0.345833375653683,-1.13571868149751,0.285111232620598,-0.835614665421731,-0.162208407787185,-1.01199088299248,0.126155583041561,-0.421295070827304,0.826889881941996,1.80341006240813,-0.0699573609383048,0.240024243469343,0.023677710459367,-1.11310978712716,2.94262270321541,-0.0359152994682165,1.41576891652489,0.74988126900081,1.19417043525105,0.424182882907465,-0.269842123360259,-0.893912057908224,0.554922977152468,-0.836515469748175,-0.563495095794622,0.61229380511111,-1.12940916830611,0.87507741338719,-0.391399469537403,-0.0566873628349577,-0.681955473900539,0.310692647991766,0.181487544129816,-1.40702208976044,-0.270486938941932,0.00970815191162063,-1.24136018067705,-0.387227836885448,0.276647433899637,0.717611718087746,-0.716370265822356,-0.132716791149204,0.50861957526142,1.12672973131221,-0.22219825572313,-0.496667034073571,-1.81678457975252,-0.0591921559250436,2.25004988315549,0.280938576722431,0.377887083788849,0.154062469541002,1.19417188994385,-0.0860965550787241,0.33788473031491,0.458566242006042,0.447523544133479,0.0799020571505178,0.528964316661183,-1.16147770520042,0.0489952858858404,-1.46904723464535,-0.594671165150124,0.411441534279342,0.952896375868359,1.97705395359042,1.12093185527015,0.35317451222933,1.65348332492475,0.630109848732878,1.43913007809157,-0.763734138846311,1.56552477392622,-0.973642236148363,-2.07852572941833,-0.0111518174230604,-0.710066646081558,-0.4240925615411,0.245001430648772,-2.14213388839091,0.562122160886758,-1.53280303479259,-0.868359754016187,0.254758826746339,-0.437079568517956,0.898546688732266,0.20825149248302,0.726467702280036,1.99595692234172,2.37134251525467,1.89942679905607,2.5043319648948,0.782653357432461,1.17332019660363,1.99549943070644,0.747937482568716,1.44272375304954,0.783858307036629,-0.363638783820504,0.38916101890943,1.695331275771,0.00775397225583327,-0.92659423843534,0.629633853655748,0.0891019687723564,1.06095584996437,0.68573551057771,-1.42104685210247,-0.708582212535372,-2.1050041292668,1.22528139385225,1.74601962332806,-0.554935172448018,0.107439670421943,-0.148912362803,0.438087279421283,0.298528009130436,2.50268813438173,1.32695364603597,0.388580103508809,0.71537372075662,0.800727354378759,-0.22782715031086,1.18836264325429,0.573468573167931,1.54226416054824,1.67617319861382,1.86956770840737,0.805109171545092,1.20309291346152,-1.48996183586453,-2.0543019999742,-1.09372320326277,0.267843396336401,-1.81429329230717,-0.241015041743075,1.71565766068377,0.0891925408464958,-0.0204944317754524,0.2265065729407,1.20230143052025,0.644477194806204,1.68162970436719,0.808050484030918,1.04685586416764,0.301903370823062,0.88615087796744,0.7578164324823,0.333359568380949,0.245461158138976,1.87054486713172,1.99760750019022,1.413028187822,1.79279419586649,1.77504765625339,0.670895950217661,-0.569745347270895,-1.56910335265366,0.0510245025980809,0.34730369871521,-0.698118846089027,-0.673814183212992,-0.0767741805793537,-1.59464931358429,0.586679275540045,0.612505575654804,1.09299957324429,-0.0430372945580234,0.875850271705049,-0.929180078861636,1.31048315023504,-0.223222881567741,0.813986353778451,1.68586534093691,0.475192801879186,-1.23002729513492,0.0422874690235128,0.438735741659622,0.783983874519069,1.14819305225052,0.234675269646642,0.356296001365549,-0.853537933712853,-0.123077304218294,-0.922193204159762,-2.35043093486172,-1.28815707139826,0.364822659452473,0.760302581617096,-1.99647908808574,-0.0799932994289604,1.71683494531439,2.01748666520544,0.241422532600688,-0.680328507335718,1.23252022332366,-0.0114151841562217,0.254870709730742,1.49064554721881,2.26770222302774,-0.0297376777797487,-0.0988135099779409,-0.208382369335509,-0.938110292886441,-0.197878341439565,1.16980618186136,-0.375961243647185,-2.76338711195219,-0.404001211591275,-2.55192294944834,-0.978814554858923,0.315247670877043,-2.24555074005165,-1.50754574569706,0.493540404408025,-0.692628472962142,-0.497792377907877,0.99164344840335,-0.883820736656789,-0.438294404451204,0.824506439684607,1.25341225769024,-0.985904101116025,-0.414071275909859,0.685033773452451,1.90534001462802,1.62455687763848,0.331607864678756,-1.13822107846024,0.52889789513405,0.649839416638243,-0.966478299328075,-0.456600143400007,-2.1415594405808,-3.2195647221897,-1.35484515888586,-1.74554858476246,-1.01385158562783,-0.439712692333311,0.160122240189863,-0.681707829415643,-1.75414138393801,-0.864508236545903,-1.32808327369257,1.53800707465988,0.793936438098715,-0.0435089047330863,-1.21824847542802,-0.117099016808978,0.234592432882772,0.629392683640928,0.529150014561036,0.0192854218688449,-0.30521796653986,0.0532323804320543,0.782853340164265,-0.741789075355005,-0.326342042058705,-0.71644264958288,-1.97431338770053,-3.04069472880262,-2.1983023507009,-0.150546602523025,-1.9931112854325,0.0454603648674251,-1.23099531919383,0.0606271323454817,-0.557122765863448,-0.29759804686188,-0.511645476100237,-0.0214481525702744,-0.272270054141394,0.662241334770363,-0.671019274175382,-0.908027269763127,1.54980140482354,-0.666327606046933,0.552191324786856,0.0546899987755093,0.181787905556999,-0.73564099885781,0.0874346224073392,-1.45975640384015,0.584527221971613,0.11416114804169,-3.14493108613678,-0.962294099410572,-0.900464993773493,-1.82953406781294,-0.910219125715931,-2.83151850404227,-0.573000185491375,-2.44194627696043,-1.274342754007,0.0564611547714705,-0.143417750364037,-0.11321082307429,0.666502794760317,0.486062420206472,-1.59022745416804,0.827054073459744,0.471072633719351,1.16236977409403,-0.997252927319313,-0.107185941449157,-0.98509154978892,0.303920779311472,1.01498914747504,-2.56269875504026,-1.76765986461312,0.0826061174794711,-1.31065977619166,-0.753219530409791,0.519992143227615,-0.822052454787141,0.749008225689395,-0.758409078639975,-1.60966645139367,0.521941430636357,-0.876345927918439,-0.603996999913452,-0.530543780798075,-1.44729977211421,0.74451768885682,0.0332935786516556,-0.207387375181017,0.890415511334317,-0.15462868138253,1.15211269398399,-1.41200132970803,-0.742234613267391,0.0163256852731204,0.580118445322227,0.851270440680106,-1.27624167799711,0.0994509595969903,-1.89906467658971,-2.41717621630793,-2.17102633568415,-0.998260369126908,-0.140630738590991,0.402508096437624,2.30871243142972,0.284007901361327,1.49616139518151,-1.10938480945937,0.869391387796584,-0.97084208478397,0.150019666674503,-0.345066817126516,-0.629109710798788,-1.73571401958475,1.96557130656385,2.03111346639853,1.04493021560866,-0.200334749375534,0.286876176025302,1.20141384635279,-1.30783106658443,-0.413781531474813,0.801434449253808,0.143212555876304,-0.49254937904195,-1.52535315773418,-1.99119523902386,-0.997960134259879,-2.66306958280184,-1.03176625581291,0.79081923972424,-0.878175507593465,0.698718399005032,2.314561816526,0.14577213876368,1.36021464336604,-0.182729605686492,-1.55558692122698,-0.780987069727688,-0.432635363508366,-0.0546040041861444,0.893688047095278,0.851661490429612,2.13145160433634,1.30980208717704,1.22242401490236,-0.872749735920648,0.256166285141297,0.338277818051429,-0.712124421688656,1.70899904742816,1.00379299171535,-0.439784233037988,0.476917714732913,-0.297233024802011,0.548707111033995,0.14146275917184,-0.819538880804257,0.962149113904574,2.03154325804145,-0.00824003853563353,1.52336024555786,0.115052743772129,1.33914418808504,1.86432389603729,-1.06490313731736,0.47579645582038,-1.27773156831784,0.394024186956867,0.929391947362056,0.844471286958487,1.30999425693066,0.603399472049616,-0.41034628109144,0.22805303017981,-0.511312622150493,0.172583446368383,0.50020914040618,-0.105507704622414,-1.99962670367953,-3.35772617311075,-0.396718671144454,-0.855328032701228,0.339655391967538,-0.751257865719878,-0.582903091666663,-0.811032718160447,-1.18196974499013,-0.548756767937819,-0.0615211943333447,3.17142448387433,1.12792308651542,0.157696376464571,-0.636480009233501,-0.0773582818883677,-0.0239101570276782,0.304053081898626,-0.64011167635868,1.38213510841341,2.70327866946554,0.736955202958113,1.41979987362493,-2.05029193062182,0.196375410062936,0.178142826252811,-0.693188801605805,-0.983222274088812,0.265846053378077,0.0249996747593346,2.75037072023814,4.6440633070631E-05,-0.38689851759165,-1.04569288814629,-0.112877118086991,0.522609005353454,0.0431234406650093,-0.682979897277269,-1.10497991024201,0.593424640158914,0.85647751190035,-0.662097217908743,-1.92210241078348,-0.0795599093604346,0.749749888661817,1.18090179216882,-0.702743691789046,2.06900458273963,-1.00381347531319,0.485307233653345,-0.290629373089116,-0.221316408715983,1.54607344220036,0.743808285858192,0.359922591971104,-1.14282244089032,-0.870324272165782,-0.155371557168808,0.585466325001704,-1.45411698025586,0.72468070757855,-1.46504507000884,-0.257320177497248,1.15156833127153,-0.0222633582603682,-0.989405228144714,-1.3425059793237,1.11234427844537,0.345122859650266,-1.67553456544075,0.497709891355835,-0.434084677619601,2.0846079964789,2.0325197011887,-0.0100797007549069,0.308436998779115,0.458607419043628,-0.412594495489553,0.696744279204247,-0.975325637750457,-0.64065551484233,0.171071176243959,1.20283028459394,1.57270411847569,0.930715168205427,-0.188106289633655,1.31040881774337,-1.91226249601563,0.375493603890515,0.291970197397154,-0.191486799224671,-0.455417603089986,-1.21243907895775,-0.17897905348868,-1.22938588546633,-2.65138689259086,0.628632010547036,2.21986144042121,0.666931569181584,1.73513328787341,-0.619239808870696,2.54458804469907,0.286523887646116,-0.000884470141370497,1.36837743375422,1.90749398574623,1.69614477495177,0.0124989229218222,-1.95023662628975,-0.375038604561232,-0.394035685577794,-1.07131221838337,1.12049191811518,0.244251197999428,0.356300475207082,0.0803716789065433,0.344412173757909,0.569074800943915,0.403608638255447,-0.327094536600464,0.868601716696891,0.199620545637791,0.932186882296316,-2.8894152405725,1.95373872926823,0.711465640274867,0.756537677887699,0.998279581674535,0.0765291220334672,2.4675610524751,1.28824940046588,1.78061015367166,2.20193301062273,1.1264308466597,0.994411430109479,-0.217085420742132,-2.19945066294824,0.728004218087627,0.405325542233925,0.636040092467602,0.560546960852574,0.430921134300805,-0.0460866349901936,0.52307666206904,-0.00421161569273027,-0.123384267594652,0.730757310443685,0.557209474344311,1.25702234818139,0.976572130706753,0.474540665431761,-0.476142637819093,0.909057319307708,-0.0165300968015101,0.481606301847281,-0.881905306457484,0.287598195387627,0.49565146117591,1.47514521056093,2.88375431031375,3.25723388324734,2.11367551005736,-0.134167640559636,0.123969618776815,-0.00828837958513462,-2.38784737264511,-0.537218614301913,-0.527831612366839,-0.95501193193448,-2.1151052158719,0.796564729693671,-1.15664749494171,0.319248970369923,0.916612421721881,1.25833999950647,0.33446762357569,0.947055237198111,0.661480151468024,0.7421280712582,2.18040528125092,-1.5368235954442,1.43986733902275,2.52793511033772,-0.280366238538601,0.118873684842612,-0.283586223787332,0.86154473566662,0.70090511609282,0.823022826365344,0.876944361476687,0.137073809540407,-0.145384718016293,0.470773075182209,1.52688906971732,-1.14388336599411,2.18981195878181,0.881813060491329,0.980691847427044,1.0365753658395,0.562160659361713,-0.623793315917067,0.848681994408375,-0.395666332212677,-0.581967253438733,-0.123831416998294,1.87031542865738,0.21916492611902,0.639872338242867,1.87116419613613,-0.559051922312081,1.70779836037859,-0.938446227935586,1.15022984406632,0.312538654451891,-0.95950718115214,0.708841269431003,0.00599341772232707,0.856047358174162,1.11825481613182,0.203232915209127,0.67672956584115,0.426797346054474,-1.79098304161756,-0.382511332879195,1.62107454801524,-0.60720771069372,1.68558306059818,0.318521151979,1.58442132410357,-0.233066294501615,0.35855537842302,0.121355224845043,-0.474776494662094,0.103554693056496,1.35718883534928,-1.40587945290409,-0.366062268701564,-0.267784475427217,0.120985227430503,0.606318667755408,-0.813907776339793,0.937290714775904,1.55520531296324,-1.74487084183773,-2.31253151721125,0.404758660527888,0.200724797105173,2.84208761093029,0.374185730765544,0.360651974288252,-2.30641950715108,-0.463674649816094,-0.865630005726407,2.52153766066391,1.04210802896189,1.53239831606686,2.15715818537291,0.646457787894148,0.230404236145257,0.300171348034158,1.81387126506127,1.05770521563472,1.49701609375882,-0.753300618775699,0.0853042818378137,0.393075839099151,-1.28965825088522,-1.64388590232284,1.35372573067894,0.358875532345196,1.37188070725367,-0.468615934878886,-0.881546170127268,-2.50819615202216,-0.187684304121229,0.335732719700357,0.217620492431886,0.48890876096906,0.701299728397573,-1.76495944328049,-0.475566103041008,1.13125567974963,0.137085804819356,-0.295099526708498,-1.2770040750728,0.438109054332921,0.909339114437366,1.88220169729335,1.06728115616342,-1.78201538524285,-1.22572882939687,-0.451508120124406,-0.458357775470034,-1.35486134124572,0.625674201240211,0.885483330075236,-0.262905868332482,-0.222075614078349,-1.87696870306275,-0.72593979206878,-2.3690493216549,0.306428610579686,-0.617261530404876,-0.586825837904894,-2.07393752702007,-1.48527886558807,0.2891262918575,-0.350123557885997,-0.24454368455845,0.617691671416324,0.0303166262294125,-1.60699313864927,0.0324836517977718,-0.0190312336598655,-1.39247893924224,-0.238727347590386,-0.0929628960427594,-0.752629891320836,-0.494881751556494,-0.504701989997181,-0.42104681223039,0.975027676349265,0.346101631689118,-0.343307295572849,0.498029972238678,-0.799524623349655,2.08008637227034,0.804172027144454,-0.970147528373389,2.52394480968223,0.913357819788675,-0.531101522781879,1.4708362242947,-0.173718146416651,0.396269111112329,-0.551484260542258,1.63895727739099,0.214369556585454,1.24196534253578,-1.16454476237068,-2.52165300712892,1.54715828326048,0.180565313795014,-0.611673357990797,1.76782849101165,-1.21490383386921,-1.32653736982173,-1.35627967781214,-0.760284777445686,-0.4722277828093,0.403217241194685,1.24730598422636,0.224345443040512,0.684552696741271,-1.49600738769564,-0.290964956518264,-0.213351393927596,0.355868365224926,0.136387881593993,-1.31387072837433,0.219727573376898
0.552816671370526,-0.544394663030587,0.913517455733598,0.722422299164309,1.04646348920914,-0.316734838558028,0.969003547859215,2.67070511407091,0.00884106818872892,0.0145421945748674,0.44375767263441,0.0498156460784344,-0.114504954210291,0.976021167438806,1.51996712467115,0.231572941780566,-0.367416538757774,-0.237611463674671,-1.0853078038405,-0.207636913407433,1.59252047452607,0.451633637159911,1.19999265904192,0.918707417669257,0.581144968605473,-0.891422584662625,0.207371243001712,-0.787415906455515,-1.28820444809225,0.885589474473373,-1.05407770338163,-1.17353737488394,0.799606628964469,-0.534789551778674,0.613621497950726,-0.294344002517094,0.117000534354693,0.890455087543448,0.186317777541377,0.675557167166705,-0.995812194334331,-0.908493020207455,0.863215905311671,0.371528117898877,-0.380908464747355,0.436532135352454,-0.458504282091898,-0.818821446619508,0.192634802798907,-0.251384925986075,0.226291534596193,-1.42178250928322,0.854003412440155,-0.19247333665872,-0.272749687615615,-1.24545591350808,-2.31330164868033,0.421694519508972,-0.160791745147536,0.812048533591467,-1.89251463713588,0.040074200548789,0.974486524482,1.430945046776,-0.20967135627526,1.25421413270567,0.644609939781162,-1.38633150950129,0.76641219289808,-0.13340590432501,-0.655733256054385,-2.53458556460797,-0.667816433358037,-0.401996808644346,0.496716137364113,0.711101156015465,-2.25791367971153,-1.81120615375558,-1.47554685170268,0.614175243152704,-0.807172226420481,0.588414779136679,-0.169337570833663,0.858710437848273,-1.01158292975372,2.49606940792171,-1.32955227631577,-1.54949859838675,1.68557252764263,-0.964113431781638,-0.05041769488537,-1.08965560109287,0.456623217264854,1.07076151163963,1.54526171132464,1.17846042453749,-2.46207260420669,1.45703377673097,-0.542630070472891,-2.70937919016631,-1.18207754803765,-0.580962167327784,-0.220307693374658,0.750667570344497,-2.6812309921441,0.166907611162031,0.306734027731208,-1.28487515508077,-0.622968438531164,-0.429022121057761,0.266674589546449,-1.76508254527312,0.617208247478612,0.17616558199762,0.182659622076989,1.84605465046338,-0.533579634593701,-0.477240673062422,0.184517827377286,-0.984885947974294,-0.840156664584159,0.393824512476353,0.695255814734638,1.10544425120042,-0.632187508886587,-0.581239369035946,0.333368707680444,0.702593714914931,-0.867717133547366,-1.20189106098097,-0.7579061084596,-0.1369600795285,-0.266736246471663,-2.26941902773764,-0.140334267391087,0.724602732862862,1.04894943737828,-0.00915205732532368,0.792254627071996,-0.474930404575816,-0.20616416823686,0.211314363125574,-0.292778312500849,-0.870652398743811,0.694296126851484,0.13435329981187,1.43324158656481,0.0119501691726182,0.330893797759951,0.898282447097587,0.550652314344155,1.30204433418287,0.730932470935309,-0.157745168548244,-1.15777607195937,-0.776703771904805,0.435299587914242,0.285501033636908,0.883670686341684,-0.987695052859851,-0.645969514388088,0.209435222438322,-0.736683035769012,0.621356003406017,-1.17678929165939,1.63531593270286,0.703483698754515,0.768328305446859,-0.333422107830819,0.38820214490248,-0.688652706133415,-0.406834183129989,0.84677552345509,-2.42505697037412,0.530613983127318,0.696394077366577,1.47083307307718,2.8591565284519,-0.452227041183811,-0.374986036041062,0.0339151908749678,0.668304524570311,0.152786267005354,0.228522619270641,0.917310878697283,-1.45050925247759,-0.113333141120684,0.89647098854377,-0.722837085597941,-1.9691211716019,0.923378436215523,0.282492123236655,0.169054955383251,1.27690063627528,-0.257837721935848,-1.07362636706227,-1.27229000529035,0.96022814487001,-0.296791935711311,-1.13474487855661,0.381927526988198,1.43058092001042,-0.0246806150288517,0.153954455738276,0.311772899323421,-0.0274086784983549,2.3412841342183,2.20548479773831,-0.207507452487214,0.857346085303078,-0.947458058618357,-0.914253500664822,1.40796751201311,-0.640137338574557,0.146733371108016,0.103170392902486,0.529808579001946,1.4354720437225,0.298644298875791,0.470068572443483,-0.938045909172861,-1.93252178891122,0.621340621361803,0.843695463191739,-0.327979033132302,1.97354522407499,1.23494939052719,0.815596672029037,-2.2527581872922,-0.0108321021695429,2.40120471817835,0.350174295478692,1.71163295335512,1.37219265443322,0.125970130535263,0.184237836622837,1.2413209226338,1.09864823575546,1.82325378166026,0.506015398800984,-0.197744594678158,-0.968081397842294,0.0719328975077111,-0.127215358963386,0.985039550746131,-0.484569188958539,0.282931033782188,0.918061159177607,-0.167786917665947,0.781450230886107,-1.10710096099361,-0.494410694892909,-1.043843399494,-1.22059886334846,0.218959259705738,1.4583384668274,1.29616348432063,1.17503790367579,-0.924981023459195,-0.500194476422478,-0.428741267618159,0.333664929584329,0.591877365302719,1.33554734731647,1.33899251458896,1.35913388119773,-0.525909365415191,0.158142957573607,1.48735097220809,0.674095511906577,-1.0727836356297,-0.111686139817179,-2.16754857418859,-0.98469832977409,-0.323925668912605,0.717605208419758,0.255235103578186,-0.267227888296846,0.0803148646046113,0.0740070797273435,-0.0326006869461098,-0.300788565675609,0.304376448751255,-1.18828974548981,-1.77581802514466,1.12433668120205,1.47396056425357,-0.395311321198077,1.7824509860566,0.859669908324051,0.659828480651703,-0.0982389315889908,-0.270563821378815,-0.465566361778255,2.32087914128768,0.799223399292919,1.0954997909771,0.199222131979851,1.49956992452215,-0.104121329483305,-0.397588642992314,0.428253332421031,-0.739042726138335,-1.22678153459513,-1.7766489540246,-0.143115633738642,-0.014879990166148,-1.47490426610614,-0.992395211434147,-0.0532581860238065,0.628516371766343,-0.00200355135195891,-2.66103722902649,-0.553242843150114,-1.51538848913395,0.4271468305049,-0.887124102843504,-0.328177253441716,0.359609725853212,-1.57394165324725,-0.661046713014398,-2.27683858522927,-3.56477480787082,-0.570817342081722,1.05881067827841,-0.277145948253504,-0.759014283478662,-1.06488576158542,-0.49751196368473,-1.29369746630356,-2.01869872995152,-2.63371361453404,-0.815606215026864,1.01115303559733,-0.949601410608264,0.743056078650241,1.59935533105124,-1.12323106709967,-0.472875977467094,0.0970790196254621,-0.389550391497355,-1.45154186062631,-0.707499431338494,-0.206256775852551,1.02346008882094,-0.457473761910334,-2.04926455228345,-0.732092516929335,-2.78499817092319,-2.11618656183243,-3.97038684924949,-1.12565250938357,-0.321399617866978,-0.153976358280836,0.639910369658044,-0.970827346968052,-1.29192089570976,-1.20818464218251,-3.90551424304537,-1.29809186811624,-1.08526153248354,0.210418714955113,2.64191619660571,-0.61389282671727,0.430347622675593,0.318016508592477,0.415563178460367,-0.893351387133955,-2.36516376102832,-2.21998715739092,-4.17884251074365,-3.2105105885798,-2.75412038833314,-4.0005129084161,-3.98175606461494,-5.37965688021234,-2.94278518815542,-0.4835092043175,-1.69558047260859,-3.04106383983715,-1.52643382659327,-0.54954222627322,-0.361512016076569,-2.79516251440624,-0.425543907241984,0.133977494976046,-0.761570557481459,-0.950827423968392,3.12543095025304,0.854099294210034,2.04813194321958,1.13191679603281,-1.38174051645661,0.656019940905746,0.590138753886604,-2.14728775570096,-0.795985606466328,-1.59633821837879,-3.24284798357806,-4.69657951737172,-4.827753953283,-3.36796101300049,-2.00973863224191,-2.3761857543879,-1.39179061793335,-1.67874030070644,-1.91737895820981,-1.24975066906898,-0.328746344258825,-0.0180408774209735,-0.278329958868476,-0.00322758688476927,-1.21304479700471,-1.58115782335751,-2.00563077262575,-0.823515539591072,1.59606520851553,0.290065335659014,2.25391386758009,1.78886873185699,-0.612750209402626,-1.62051624551434,-0.00722407187026043,-0.648092565457146,0.155624491167985,-2.88078436383465,-3.7407956719663,-2.83255640435252,-0.921196266698471,-1.55982953624955,-0.608168945464305,0.134458291128912,-0.0864953547570524,0.949403869505661,-0.956265698497221,-0.0879890092535284,-1.32823834764761,0.179884214052142,-0.463588546653342,0.70767672913253,-0.672164397520425,0.78587058035415,-1.07519052839364,0.813059997906129,-0.312918258736932,0.202436599029362,1.25491612653565,0.073589163390633,0.124811170103705,0.107347382033459,-0.707104126509683,-0.228301164138765,-0.702515583650626,-0.231753659472751,-0.614731746978334,0.65645536198842,1.17756740628823,0.290389880659579,1.94915547777747,-0.200670235677844,-0.189605905042405,1.14289469377607,-0.336067126100372,-0.602488096190772,-0.0899811769139906,-0.540520462503396,-0.892527642275974,0.245992837856168,-0.732206590770599,0.711953943786137,1.54642198670883,-1.54219943988412,0.911233719253603,0.276005534627963,2.22131567924173,0.927624045770554,0.458642003684258,0.757047133904905,-0.690907180937374,-1.93889099089597,-0.847835284009572,0.467139172065858,0.142231027853969,1.98830493135713,1.00422372994794,2.54219374393726,-1.16708882917466,1.52694013047652,1.58694436462804,1.13440839481667,-0.165030841715114,0.975157457122351,0.423382044238112,-1.09774990081795,0.616159642032285,0.636141677737351,0.29961259660928,0.919238994621485,-0.562803809576926,1.33519645655433,0.803166368209729,0.522714626173188,0.853295806618029,-0.876712981316024,1.85210362392631,-0.760545908138687,-1.21417420910215,-0.850328421379997,1.0924269716613,-0.563765541010971,1.2973195439788,1.00987920422641,0.210677934916211,1.4421561472925,1.36523956678202,0.477920463913627,2.23375079641793,-0.373193581515825,1.08780386434767,1.10863199899414,0.58907960190961,0.7411660206103,-0.112528640543827,-0.806415037953536,0.332518874437955,0.933238078466157,-2.04140956143622,0.525564154366475,0.31916321084672,1.31609110462448,0.0897189167344715,-1.06323256162204,-1.05257203204704,1.33321749242482,0.765309350108787,-1.2562871328317,-0.237512367667578,0.163138586276137,0.880803787254031,0.452255588485775,0.754099450748186,0.887828100483637,-0.431299616788818,1.05071673066536,0.0684945891916837,0.430854223865742,1.87185643544353,-1.75921710182347,-1.0899397525377,-0.0533412954287687,-0.925746945600463,0.33675721138461,0.6956709111626,0.349696362780428,0.0273154937792405,1.2352501736504,1.51357390420362,0.0291143818666991,0.325694306739279,0.775269563293647,0.311801692898709,-0.081365720294274,1.10768099657805,-0.0882203632736948,1.79524028223657,2.382181661829,-0.884699973833254,0.821388275564921,0.617394886242161,1.10886021581426,-0.234333848769245,0.25322869434349,0.687035402872623,0.371781599534599,-0.402381765179536,-0.291818429922159,-2.27304858089548,-2.64909525558566,-1.07702852180451,-1.23876646480747,-1.23608039917724,-0.929021922296844,-2.27762126823593,0.528821341416579,-2.5716257521413,0.981239480649278,0.30915726185331,-0.258195788830209,0.331427367441245,-0.281565102601271,-0.432926782711419,1.76861975054305,0.277782293535778,0.158759990174014,0.172752314078651,0.101213517640055,0.416347957885281,-0.191639347723669,-0.113624197277136,-0.553424226905044,1.59903151940521,0.302402292674719,0.386169753605258,-0.523496202184987,1.70849267310019,1.08950272225425,1.35787123194275,-0.604514739350174,-1.33931155280859,0.527279592911932,0.0314037067471199,-0.477296809637348,2.61741132786741,0.569327623815265,-1.42441213395051,-0.00496555064785715,1.5344971741554,-1.4947785213426,0.187611302847453,1.27760508923002,1.71140010484701,0.34170784670074,0.348869605958901,-1.47466746440325,-0.0655494277865866,-0.25249723621882,0.0113150830006918,-0.200697335105068,-0.451891605880164,-0.783913873585224,1.71618062496648,-0.663170493933005,0.535535317577013,0.50663645959315,0.293794411868401,0.116839843077117,0.751030478587865,1.92812730827626,1.39927891302826,2.11335965622861,-0.563274478203432,-0.270419417927853,-0.312611111547363,-3.35162937520882,-0.707983140151665,-0.713153192778633,-0.366433960728517,0.824289132607004,-0.805034581813977,1.11490436869376,0.45027853862199,-0.0610990878452122,-0.648178701961111,1.16299700919079,-1.64408774065266,1.57603078582109,-0.463626827413755,-0.787162262693107,-0.394257301511395,0.221926367166996,-0.410295184245784,-0.703897956058847,-0.557978242478618,0.699913102683855,-1.42728004327984,-0.0647468516357523,0.0562514259732641,1.38168027172346,0.627252629694692,-0.568029715765255,-0.60462107727048,-0.177285245535928,-0.34838310446907,-0.255233208082998,-0.514666854093495,1.30909625958138,0.547023443301472,-1.31445154527636,-0.826126330016632,-0.189179245590989,-0.326658928692605,-0.321042907824013,-1.38811998924375,-0.29462242052917,-0.274989943381767,0.0481706080935752,-0.0858488378079471,-0.215059505669456,-1.09654080020649,0.606348300168377,-0.173874550864201,-0.0196387152910306,-0.5398490128743,1.24353902960655,-1.28532196079206,1.33861201066358,0.245589375766225,-0.309280584441854,0.201828851329402,-0.528446668405686,1.52933049503998,1.50117240569542,1.08617552103629,-0.884480960019216,-0.289248733395269,0.851967912156966,0.33379906195716,0.107106590665796,1.4067781491802,0.359554570614229,-0.25617767547362,0.214202798348862,0.408965145301714,0.422363680062305,0.224208408306081,1.80774217927166,0.533301232270378,-1.09232602238933,1.66811352199984,-0.531681624211801,0.440222810586178,-2.12929421655121,-1.39796706061553,-1.76288243399,-0.903460960422909,-1.50335501888918,-0.816355273383018,-2.00936639705322,-0.871099721468092,-0.197024746308141,1.68745706771818,-0.332362736804816,-0.639907480698662,-1.01472297568945,-1.22360808517596,0.455487402233667,0.42297495050591,0.557161930044804,-0.694251825301218,-0.0488610024512713,-0.431647434443251,0.163491486708176,-1.19555555077395,0.807529542511089,-0.727611782303275,-1.12105084467238,-0.562308877379789,-0.876823378419809,0.96588692759369,-0.110634699115485,-1.42183800629389,-0.866983420450424,-2.85208901710418,0.854818077033985,0.349527949746134,0.515781434524094,-1.61322862418478,-1.40653299363919,0.162190653666563,-0.892347851141011,1.43663932929412,-0.85357267953236,-1.76914788764563,-0.22670214315255,-0.155315444393406,-1.37608384849672,-1.70964616562807,0.674490251554977,-0.126933926260862,-0.0407870802561006,0.00040934552104002,0.0941666104547267,-0.285121387165093,-1.33478040062681,0.529167548192712,-1.05116319676556,-0.477767637398929,-0.337693274126885,0.582165068361714,1.17687253641685,0.941638632709804,-2.16155799043271,1.3766588629099,0.482918610073209
0.387361364968098,1.437385556733,1.02084095282118,-1.93528850685718,-1.97505730720143,-0.659501228697354,-1.37680898193033,-1.58052606218251,1.23587043757806,-0.122785260697972,0.417579554624461,-0.157855001468462,0.102539189005532,0.258629929282265,-0.226848215419168,-0.54375831224126,2.49849177249249,-0.0136528669110469,-0.699631581485338,0.67298488628133,-0.207361574107656,0.677044776226131,-1.5255492183733,0.654671098861612,-0.812943768325934,0.577376660523076,1.7888170224316,0.0475986298763443,1.37216177402785,0.230171317719707,0.961697906690197,-0.815207823143445,-0.215937979410624,-1.85002212766208,-1.14790901997522,0.550229295797221,-0.720698013999389,-0.772021238112217,-0.593249117483269,0.477679623637938,0.82634433005399,1.34194705168041,-0.514108950421906,1.1484570517402,0.635797997730021,-0.0952717706572861,1.44691864076766,-2.43566599531597,-0.061401367626577,1.29097966395514,-1.80113201869368,-0.00436261522389796,1.72372867052894,0.174510014230615,1.04691258184559,0.471156445525628,2.53092192110795,-2.0574477617419,-0.464805861886793,-1.0047391627123,1.49451308034421,-0.29907327552068,0.729983127787896,-1.84253607783852,0.534631740112106,1.05956288814147,-1.8258105068813,1.44283660950246,-0.156998525822688,1.48140113935871,-0.59560531256628,-0.632262269794829,0.101264217892381,2.25367073170882,-0.749149504009457,1.14844272335076,-1.33785974956684,0.150849801619005,0.441443626924547,0.852200966451219,-0.223677282453971,-1.3546844022237,0.61546184227438,1.40374927357018,-0.0492609423268747,-1.66896689628396,-0.0449112077655929,-0.600297229951451,0.0867721102167886,-0.415996302844679,0.373187170750582,1.10796468416872,-2.14957402437162,0.576558939980767,1.35091137654535,1.76284505391088,1.60666423135684,0.910396340334809,-1.58351068720214,-0.987878676678919,-0.031554240721054,0.615638784289609,-0.965288068037352,-0.373268350399256,1.07488426042795,0.84868541533178,0.458724065725023,0.574795040335092,0.733194533836396,-1.34592832646949,0.590591117044423,0.156553532823444,-1.10716343584592,0.978379092370283,1.08333821095414,0.73759326645014,-0.661830882254383,-0.408019063496221,0.550680963705428,-0.630141206787527,0.290765334885462,-0.392189908473007,1.39468410124855,0.211990860963354,-0.903450261918958,-2.15868501243218,1.07344007634061,-0.107350316938689,-0.0548794634394262,-2.99014126093773,-0.700936424946754,-2.1552252563113,-0.0816114898690627,0.245339914370648,-1.2390579851022,0.304451235633666,-0.605949229878848,-1.32776859554267,0.101032061390942,0.723075784224677,1.21729825278637,0.608722718164713,-1.15408938613797,0.884693220795995,-0.156636624081581,1.40911538123845,0.228826094050466,-0.279683508406952,0.0320125738098998,0.266821046563092,1.02458356907363,0.770943996511441,-0.142711981143398,0.752703100190089,-0.24408551341094,1.01192341610608,-1.52717482797119,-0.939865338752778,-2.78988635075869,-1.41286198738024,0.299798478797665,0.5347750841229,0.0619465885756173,1.48143194426689,0.261286798842974,0.730211618437412,-0.674616635879637,0.655902560610239,0.658228795037187,-0.0852430746570911,-0.416859891643521,1.35781565890966,-0.954348418114476,0.0175401737488611,1.07073403147541,1.21262158128718,0.597810145093821,1.20183385868091,0.347685713837735,1.30288554647941,0.737758789254801,1.29635676472611,1.3233880730732,-1.01056790156381,0.82446311450665,-1.23466218756451,-3.08666019368256,-0.83854467946666,0.252859837962128,-1.4682103401745,1.13958728289947,0.502255635834371,0.138309258182854,1.52997767339499,-1.40092670667343,-0.962568983747588,0.946890212859696,0.965476507311398,0.256594562488311,0.277357681336493,1.39352262435666,-0.490138860416428,-1.13026562874454,-0.744371944632091,0.342096164857303,-0.0240999434216911,1.12052568295191,1.56582297853651,-0.67914099966503,0.895706553031431,1.34248810596862,0.894576097597682,-1.09660939002677,-0.251765684674281,-2.39687642930775,-2.75449451008682,-0.170314192603991,-1.98503446614989,0.480152927698597,0.634990593646224,2.59476996665977,2.42361322504562,-0.709451651098074,-1.52341972028651,-1.30666626458026,1.41159004765475,-0.158068748801544,-0.20981175587492,-0.58705839473051,-0.265008216236366,-1.55428014660565,-1.42476116149564,-0.746683523311317,0.928226524725231,-0.468481571080877,0.160228532281705,0.63356841774819,1.77421776097825,0.675642782056931,0.24369647200827,-2.54213449276212,-4.20191225326477,-2.21844239629631,-1.11532269620106,0.0406293432524647,-0.257307840711991,-1.01190605411604,0.676180404559746,0.892650387860797,1.38598933294707,0.247651988882461,-1.06647318521786,0.670034124764114,0.161064005581433,0.446808275468468,-0.531215856979082,-2.16690989536067,-1.63638721816835,-1.44165300490409,-1.5057600432204,0.0849013070849705,-0.912912707331815,0.468318010811648,0.489618426958963,0.987014733715577,1.37052818874516,2.56389369932865,0.37771712841185,-2.2894165972745,-2.67126010044639,-2.19101645228059,-0.901857317725839,-2.16287473747933,0.215995152589311,-0.828442502236703,-0.437443064079168,3.74106684201709,0.749773874757716,0.741792856852052,-0.227985617376901,-0.357063459477903,0.637026847776387,-1.3666270123226,-0.629849158308687,0.66573304125699,0.523836253254372,1.63719733549612,0.244350256331741,-0.131105552567075,-0.422968081648011,0.171377365738891,-0.490080373840932,1.26687364465934,2.64375431307455,3.05419339254871,0.222420372073355,-3.30796332652926,-4.45412335640721,-0.707782866485749,-0.448930807640071,-1.59955731232625,-1.60706929794271,-1.43882740286007,0.44892317245109,0.974502503730137,2.79127550415487,-0.639533774655221,-0.583908467472382,1.02527095047732,0.296898609626799,-0.401814992587127,-0.655337673414022,-0.825046864286042,-0.0245188158774789,-0.121774800116217,-1.59832218433506,0.0315544473732317,0.198996013264314,0.771902573418836,1.7288636958348,1.68430863148747,-0.249268271626924,3.28674294749126,0.767069852576546,-0.398740287474295,-2.36624792017147,-0.89016696347216,-0.651400435838023,-0.877080460184264,-0.00376458802896701,-0.944002251644314,-0.149211590170745,0.304907964364409,0.856522027503642,0.701285342986783,0.29187121147818,1.14984944799751,-0.856048969177711,-1.80468458048207,2.05374191695531,-0.19413049923847,-0.0840808391118743,0.461481676651805,2.45718528541057,2.79842104101547,1.7069635347634,-1.20854140622278,1.40524919335514,2.08286810075975,1.27082785808303,2.423213540315,2.32859679067636,0.122654141269719,-1.13816421899047,0.493109387790334,0.631240009958291,1.05063301065703,-0.763467368973004,-0.244602465530938,-0.66506025782446,-0.490202091004035,1.56254719434735,-0.478998742220185,-0.78628141726839,0.0749227747968568,0.030765027698144,0.389121880536864,0.305894035274639,-0.132232772463816,1.2355479267725,1.47107838632636,0.682489627970336,0.197556533090611,-0.660667403113759,0.716484610647557,0.691414450069819,0.436050209914832,1.94938261604181,1.23326153831728,0.563882042094244,-0.423545020679046,-0.436421338398875,0.204458054700918,1.01763430598322,0.0364683637811601,-0.309485186283627,-0.336377076504222,-0.839938520101514,-1.22764015874739,-1.13761205466843,-2.3115588323642,0.643955396717347,-1.2381820555708,-1.64764830143265,0.947675653036407,0.593000184504773,1.42077675232393,-1.31810445623476,0.0473789064761942,0.145635837304102,0.200397019310527,-0.168325313014925,1.34934944186028,0.723214284268834,-1.25230838872475,0.653447133438173,2.07399994888867,-0.11785348921985,0.0385815236468595,-0.138937070476378,0.371343337053724,0.667035486920557,-1.11773311411323,-2.42971053918161,-0.475779542241703,0.23190744776627,-0.103722016080304,-0.966211513805925,-0.292108105964279,0.476373182729203,0.408752067545372,1.56339799424725,0.873854787627568,0.0882773632155615,-1.23849029560986,-0.696145938678179,-1.00135776654185,-1.44805498697962,-1.29303767160099,0.583463071085206,-0.102928986745426,-0.420466877096845,0.30794894683296,0.585557107085037,1.98969797854587,-0.133954710539358,1.11026006375488,-0.345488498413382,0.944246014757822,0.119907170717036,-0.931695808210216,-0.288006130911697,-2.54228837936866,-0.771695096668223,-1.21460758322588,0.927698351753953,0.204859309590771,0.198263910945519,-2.1304214332283,-0.18779618167727,0.246207256731032,-1.08444785329396,-0.793024586131314,-0.912228996682817,-0.0724581536193569,1.01798178105238,0.716788089427053,0.680046982220006,0.19206267975022,0.826356420178112,0.109486003075568,0.982895116630077,0.882093538471101,0.625412536610128,1.39928718148619,-0.763492985043894,-0.365286324981411,-1.71683874384917,-1.23761038274949,-0.989445869287993,0.200404261614853,-0.0413907033885098,0.387675030311725,0.474815987098428,-0.229218916365188,-2.05807540708625,-1.2433399795316,-0.189018055193078,0.613495192912164,0.644620682729295,0.543506527311374,0.576143949719629,1.79459024454207,0.419340586723937,-0.669195865032383,-0.136533790068176,-0.286968480543135,-0.615817225687621,1.71503860051824,3.38084904377855,1.24888065480997,1.43951653693465,0.390979442489371,-0.00137579336096241,-0.50099547218715,-0.3736773642873,-0.517865339396644,0.423308163278237,-0.209678432819166,-0.260402150505456,0.836297886316661,-1.25990671116712,-0.355139207300905,-1.66738453774951,-0.517313980706318,-0.670461581639706,-1.79247345799236,-0.66638993439162,0.62261198009584,0.0628361104744426,-0.0236569704638191,0.884780075695909,0.620847939909215,-0.146666944522064,0.433565212165594,1.07296026019849,0.25363166770585,0.666242793614803,1.87024208312251,-0.12592203132617,-1.31513064079354,0.3398895801452,-1.71155423619999,0.469643044060053,0.400923169986435,0.520548808570773,0.174141444631016,1.009558603903,1.09904418696665,1.06044787613479,0.362417166728442,-1.76007458844276,-1.26078969608761,-0.643843951229091,1.69157000232125,-0.591634224046304,0.666494293852788,-0.744399290046614,0.445615355442792,0.281860789345659,-1.57252440053657,0.749392835960752,-1.51653394440065,-0.959567491202042,-0.0796828694813813,-0.662993295910153,-0.0902400419684653,-1.40061902017122,-0.362736395740062,-1.54688329945463,1.89410984045716,0.467351583520779,-1.29499143550582,0.464177546147342,-0.276592659100893,1.5240808114456,0.300529275871611,1.32014803368589,-0.735369658395099,0.249921145788068,-0.930563171192385,-2.63611496153641,-0.0624962690306235,-0.210289315426774,0.470372173565032,-1.21638195447426,1.30374375513957,-0.75320672768847,1.41200242650937,-0.328252952576452,-1.05563632892377,-0.873913904777299,-0.63973550847125,0.221152660334477,0.462602155683756,1.96294684564944,1.30064884963891,0.319037338184994,0.8603951601317,0.370638339955826,-0.165173580408342,1.52431170838523,1.43610404367483,0.892039800512206,1.57436713087196,0.790054625212967,-1.77765981468951,-0.566863570291936,-0.264347936985711,-0.366527309747274,0.733918072134525,-0.866212052119971,-2.02728500383897,-0.385888043484842,-1.27731095425896,0.432145631172536,-0.206902905202875,1.05665478846617,0.761439415792777,1.42956401279509,-0.67796947212656,-0.588157472908204,-0.838228131731714,0.249673716794769,-1.57218025478675,0.560972744902062,1.384683686619,-1.71203568049013,-1.21701978149238,-0.901564415282,1.17274870926059,-0.654999708209788,0.60005949340352,-0.195825822474189,-1.164430587972,-0.246368067906914,0.159588850177464,-0.012136309958928,-0.839590363621069,-0.529912568694003,-0.385392042080674,0.274962831454306,-1.42679567608423,-0.0709589756822357,0.0577248891734295,0.280627071518384,0.509901735648229,-1.67710969815206,1.46408137358354,-0.764256957779961,-1.40613782292019,-1.55966480793306,0.133197393291535,-0.174977692246001,0.827407768744141,1.49348838380674,-0.127011107141257,0.212959670506436,-0.108134388853547,0.395367616842161,0.773670385650999,-0.262463725991373,0.302657595497733,0.812942989550616,-0.353481229195901,0.862557063432249,-0.242719499220356,2.06513627432703,-0.222010745947886,-1.58325987609682,0.676422791094793,0.0148871599103539,1.13047822579546,0.6347646803917,-0.381642798983162,-1.02208003986681,-0.133238406946523,-0.338114511315358,-0.700611113767682,1.58685957210701,0.279950388176629,-0.173846639766371,-0.824321368189793,2.24857779619476,1.08900756809149,-1.15120127950186,-1.09249322754874,2.13897463870284,-0.477672445808548,-0.217793217786679,0.771871347630484,0.019752438204486,-0.121051686805712,0.0182229309959327,-1.28738272357226,-0.623315348111677,1.05974058007277,-1.30445760165783,-2.27745796101835,0.048674195065098,-1.18208194113627,-0.81317219140873,0.203620247033735,0.778531218073547,-0.821420334296027,-0.49374400263175,2.07796939922364,-1.15818975767848,-0.783592857906977,0.350479397821247,0.343128937739569,0.656786211503761,3.83307360022107,-0.261840049997819,-0.530074660583252,0.737534039372821,0.646736442230976,0.658766962287705,0.147352677962603,0.916332371769145,0.434644183766829,-0.620910772374461,-2.05875471122323,-0.273604057722034,-0.0043957492445838,-1.24389499476979,-1.92631527467655,-0.543605108106758,-0.362268287195277,-0.682597557482124,0.925419297975502,1.33418385400181,-0.0435242394463045,0.0733732002485963,-0.188384605229108,0.0966758394559218,1.25335983396095,-0.0147784446800094,1.35467248094315,0.922578138140902,0.546638464757103,0.718164099176622,0.243784533535312,0.698525748801439,1.48843725559442,-0.08418427014715,0.114448143288959,-0.39526414814622,0.643437034346469,0.334177124539248,1.69631215598484,0.827793627650027,-1.1390499622052,1.59756071619848,-0.366823194665827,0.754014214364595,0.0545290510711289,0.38440853541244,0.120480302670108,1.01556450135917,0.148259066202477,-0.406249691287664,-0.703223210319044,-0.703177678382862,1.00902752818401,-0.0161692632375597,-1.45026541142618,0.55913625376542,0.731834444129768,-0.526182330815318,-1.09913945750851,-0.608368018179271,0.315629270307055,0.643050437057052,0.235670747104122,0.484776968257142,-0.132634405445454,-0.497195610824086,-1.20348144228001,1.37332625950626,-0.797940533386635,1.05408900025618,-0.729875543831413,-2.40210481358584,-0.233940380381624,-0.777458028830871,-0.0615569513913116,2.78427747134677,-0.478009623490527,0.6591014720137,-0.648407868769687,2.08591842573154,1.237726515452,-1.38775382355677,-2.52599304672726,-2.22662114577019,0.664216511445856,-0.653101540880361,-0.463847352193588,-0.362460622667058,-0.0848792333457169,0.454362700547694,-0.622700361823718,-0.274654298478037
